{"learner":{"attributes":{"scikit_learn":"{\"_estimator_type\": \"classifier\"}"},"feature_names":["amount_vnd","receiver_bank_code","transaction_type","is_biometric_verified","tx_count_1h","tx_count_6h","tx_count_24h","tx_count_7d","tx_sum_1h","tx_sum_6h","tx_sum_24h","tx_sum_7d","tx_avg_1h","tx_avg_24h","tx_max_24h","amt_zscore_24h","unique_receivers_24h","unique_devices_24h","hour","day_of_week","is_weekend","is_night","is_tet_period","days_to_tet","time_since_last_tx","hour_sin","hour_cos","sender_out_degree","receiver_in_degree","sender_bank_diversity","pair_tx_count","is_repeat_pair"],"feature_types":["float","int","int","int","float","float","float","float","float","float","float","float","float","float","float","float","float","float","float","float","int","int","int","float","float","float","float","float","float","float","float","int"],"gradient_booster":{"model":{"cats":{"enc":[],"feature_segments":[],"sorted_idx":[]},"gbtree_model_param":{"num_parallel_tree":"1","num_trees":"300"},"iteration_indptr":[0,1,2,3,4,5,6,7,8,9,10,11,12,13,14,15,16,17,18,19,20,21,22,23,24,25,26,27,28,29,30,31,32,33,34,35,36,37,38,39,40,41,42,43,44,45,46,47,48,49,50,51,52,53,54,55,56,57,58,59,60,61,62,63,64,65,66,67,68,69,70,71,72,73,74,75,76,77,78,79,80,81,82,83,84,85,86,87,88,89,90,91,92,93,94,95,96,97,98,99,100,101,102,103,104,105,106,107,108,109,110,111,112,113,114,115,116,117,118,119,120,121,122,123,124,125,126,127,128,129,130,131,132,133,134,135,136,137,138,139,140,141,142,143,144,145,146,147,148,149,150,151,152,153,154,155,156,157,158,159,160,161,162,163,164,165,166,167,168,169,170,171,172,173,174,175,176,177,178,179,180,181,182,183,184,185,186,187,188,189,190,191,192,193,194,195,196,197,198,199,200,201,202,203,204,205,206,207,208,209,210,211,212,213,214,215,216,217,218,219,220,221,222,223,224,225,226,227,228,229,230,231,232,233,234,235,236,237,238,239,240,241,242,243,244,245,246,247,248,249,250,251,252,253,254,255,256,257,258,259,260,261,262,263,264,265,266,267,268,269,270,271,272,273,274,275,276,277,278,279,280,281,282,283,284,285,286,287,288,289,290,291,292,293,294,295,296,297,298,299,300],"tree_info":[0,0,0,0,0,0,0,0,0,0,0,0,0,0,0,0,0,0,0,0,0,0,0,0,0,0,0,0,0,0,0,0,0,0,0,0,0,0,0,0,0,0,0,0,0,0,0,0,0,0,0,0,0,0,0,0,0,0,0,0,0,0,0,0,0,0,0,0,0,0,0,0,0,0,0,0,0,0,0,0,0,0,0,0,0,0,0,0,0,0,0,0,0,0,0,0,0,0,0,0,0,0,0,0,0,0,0,0,0,0,0,0,0,0,0,0,0,0,0,0,0,0,0,0,0,0,0,0,0,0,0,0,0,0,0,0,0,0,0,0,0,0,0,0,0,0,0,0,0,0,0,0,0,0,0,0,0,0,0,0,0,0,0,0,0,0,0,0,0,0,0,0,0,0,0,0,0,0,0,0,0,0,0,0,0,0,0,0,0,0,0,0,0,0,0,0,0,0,0,0,0,0,0,0,0,0,0,0,0,0,0,0,0,0,0,0,0,0,0,0,0,0,0,0,0,0,0,0,0,0,0,0,0,0,0,0,0,0,0,0,0,0,0,0,0,0,0,0,0,0,0,0,0,0,0,0,0,0,0,0,0,0,0,0,0,0,0,0,0,0,0,0,0,0,0,0,0,0,0,0,0,0,0,0,0,0,0,0,0,0,0,0,0,0,0,0,0,0,0,0],"trees":[{"base_weights":[-2.1760028E-3,-5.336569E-1,1.3093829E0,1.9996227E-1,-6.872733E-1,1.4087253E0,-1.7622081E0,-8.5461193E-1,1.9411371E0,1.1950103E0,1.9355346E0,-2.1958457E-1,-1.8793694E0,4.6387637E-1,-1.161797E0,1.9996092E-1,-6.3247865E-1,1.7139417E0,8.2393456E-1,1.647138E0,1.9459113E0,4.137931E-2,-1.6862745E0,-1.8882529E0,1.4285715E-1,6.430748E-1,-1.9083409E0,-1.354314E0,6.3005604E-2,4.827586E-1,-9.8876405E-1,4.9076924E-1,1.8812132E0,9.929603E-1,-1.4679518E0,1.7154812E0,-2.5454545E-1,1.946664E0,7.5E-1,-1.2307693E0,3.140496E-1,-1.8297873E-1,-0E0,-1.6227074E0,-1.9801612E-1,2.8405378E-2,1.7958589E-1,-1.1186441E-1,-1.9515973E-1,-2.9145485E-2,-1.5851155E-1,1.0061642E-1,-1.9901772E-1,1.07692316E-1,-2.5454545E-2,9.4736844E-2,-1.2049689E-1,6.854655E-2,-1.9790027E-1,1.8859191E-1,-1.84E-1,8.4221385E-2,1.9292127E-1,-1.9777314E-1,-3.1875E-2,-5.4054055E-3,1.7573163E-1,-1.75E-1,1.5555556E-1,1.9746475E-1,1.9180109E-1,1.2592593E-1,-1.1111112E-1,-1.7777778E-1,-0E0,6.077348E-2,-5.2307695E-2,-1.7222844E-1,-1.25E-1],"categories":[],"categories_nodes":[],"categories_segments":[],"categories_sizes":[],"default_left":[0,0,0,0,0,0,0,0,0,0,0,0,0,0,0,0,0,0,0,0,0,0,0,0,0,0,0,0,0,0,0,0,0,0,0,0,0,0,0,0,0,0,0,0,0,0,0,0,0,0,0,0,0,0,0,0,0,0,0,0,0,0,0,0,0,0,0,0,0,0,0,0,0,0,0,0,0,0,0],"id":0,"left_children":[1,3,5,-1,7,9,11,13,15,17,19,21,23,25,27,-1,29,31,33,35,37,39,41,43,-1,45,47,49,51,53,55,57,59,61,63,65,67,69,71,73,75,-1,-1,77,-1,-1,-1,-1,-1,-1,-1,-1,-1,-1,-1,-1,-1,-1,-1,-1,-1,-1,-1,-1,-1,-1,-1,-1,-1,-1,-1,-1,-1,-1,-1,-1,-1,-1,-1],"loss_changes":[9.08181E4,3.6081734E4,1.1466777E4,0E0,3.844979E4,4.0952031E3,2.1240356E2,3.3286504E4,7.886738E2,4.984715E3,2.8226562E1,3.2316727E1,3.485254E1,6.602992E3,1.5716891E4,0E0,4.6966442E1,2.207754E3,5.8508174E3,4.868683E1,7.6601562E0,2.5535112E1,3.0855255E0,2.3432129E1,0E0,5.9758267E3,3.5084717E1,1.4129547E4,1.7536314E4,1.2978441E1,3.8397064E1,6.2646844E2,1.6976172E2,1.9831797E3,6.07178E2,2.6634277E1,3.994243E1,4.3320312E0,8.981482E0,8.752136E0,1.5191919E1,0E0,0E0,8.470764E0,0E0,0E0,0E0,0E0,0E0,0E0,0E0,0E0,0E0,0E0,0E0,0E0,0E0,0E0,0E0,0E0,0E0,0E0,0E0,0E0,0E0,0E0,0E0,0E0,0E0,0E0,0E0,0E0,0E0,0E0,0E0,0E0,0E0,0E0,0E0],"parents":[2147483647,0,0,1,1,2,2,4,4,5,5,6,6,7,7,8,8,9,9,10,10,11,11,12,12,13,13,14,14,16,16,17,17,18,18,19,19,20,20,21,21,22,22,23,23,25,25,26,26,27,27,28,28,29,29,30,30,31,31,32,32,33,33,34,34,35,35,36,36,37,37,38,38,39,39,40,40,43,43],"right_children":[2,4,6,-1,8,10,12,14,16,18,20,22,24,26,28,-1,30,32,34,36,38,40,42,44,-1,46,48,50,52,54,56,58,60,62,64,66,68,70,72,74,76,-1,-1,78,-1,-1,-1,-1,-1,-1,-1,-1,-1,-1,-1,-1,-1,-1,-1,-1,-1,-1,-1,-1,-1,-1,-1,-1,-1,-1,-1,-1,-1,-1,-1,-1,-1,-1,-1],"split_conditions":[0E0,1E0,1E0,1.9996227E-1,1.0001321E0,8.695118E6,2.14747E5,-8.41E0,2E0,5E4,9.00662E6,7.6807606E-1,2.9866192E0,1E0,8.879599E6,1.9996092E-1,-7.67E0,2.9852E4,8.66025E-1,8.66025E-1,1.0824648E7,-8.3221555E-1,1.0005155E0,1.0401693E7,1.4285715E-1,8.695118E6,2.2143E5,5E4,1E0,8.000887E0,4.8137E4,7.6807606E-1,1E0,1.0007377E0,3.14022E-1,-9.0315014E-1,8.996849E6,1.8E1,8E0,3.14022E-1,9.25969E6,-1.8297873E-1,-0E0,7E0,-1.9801612E-1,2.8405378E-2,1.7958589E-1,-1.1186441E-1,-1.9515973E-1,-2.9145485E-2,-1.5851155E-1,1.0061642E-1,-1.9901772E-1,1.07692316E-1,-2.5454545E-2,9.4736844E-2,-1.2049689E-1,6.854655E-2,-1.9790027E-1,1.8859191E-1,-1.84E-1,8.4221385E-2,1.9292127E-1,-1.9777314E-1,-3.1875E-2,-5.4054055E-3,1.7573163E-1,-1.75E-1,1.5555556E-1,1.9746475E-1,1.9180109E-1,1.2592593E-1,-1.1111112E-1,-1.7777778E-1,-0E0,6.077348E-2,-5.2307695E-2,-1.7222844E-1,-1.25E-1],"split_indices":[23,30,3,0,30,8,12,23,30,12,8,25,4,3,8,0,23,8,25,25,12,25,5,8,0,8,8,12,3,29,14,25,25,4,26,25,13,27,1,26,11,0,0,1,0,0,0,0,0,0,0,0,0,0,0,0,0,0,0,0,0,0,0,0,0,0,0,0,0,0,0,0,0,0,0,0,0,0,0],"split_type":[0,0,0,0,0,0,0,0,0,0,0,0,0,0,0,0,0,0,0,0,0,0,0,0,0,0,0,0,0,0,0,0,0,0,0,0,0,0,0,0,0,0,0,0,0,0,0,0,0,0,0,0,0,0,0,0,0,0,0,0,0,0,0,0,0,0,0,0,0,0,0,0,0,0,0,0,0,0,0],"sum_hessian":[1.3028375E5,9.2714E4,3.756975E4,5.3E3,8.7414E4,3.639325E4,1.1765E3,8.21825E4,5.2315E3,2.58925E4,1.050075E4,8.325E1,1.09325E3,1.5529E4,6.66535E4,5.1155E3,1.16E2,1.0794E4,1.50985E4,3.7025E2,1.01305E4,7.15E1,1.175E1,1.09075E3,2.5E0,1.4439E4,1.09E3,5.759975E4,9.05375E3,2.8E1,8.8E1,1.299E3,9.495E3,1.4062E4,1.0365E3,3.575E2,1.275E1,1.01235E4,7E0,1.2E1,5.95E1,1.075E1,1E0,2.8525E2,8.055E2,1.1011E4,3.428E3,5.8E1,1.032E3,1.027675E4,4.7323E4,6.20425E3,2.8495E3,1.525E1,1.275E1,8.5E0,7.95E1,1.20475E3,9.425E1,9.4835E3,1.15E1,1.21135E4,1.9485E3,7.175E2,3.19E2,8.25E0,3.4925E2,7E0,5.75E0,5.08725E3,5.03625E3,5.75E0,1.25E0,8E0,4E0,4.425E1,1.525E1,2.2225E2,6.3E1],"tree_param":{"num_deleted":"0","num_feature":"32","num_nodes":"79","size_leaf_vector":"1"}},{"base_weights":[1.1429829E-3,1.0388355E0,-9.566921E-1,-1.8643655E0,1.1203117E0,-1.571582E0,-4.9035937E-1,1.6739334E-1,-1.884031E0,1.1974497E0,-1.7327746E0,-1.8413612E0,2.8763843E-1,4.1641742E-1,-7.6620543E-1,1.4359482E-1,-1.8917037E0,9.894845E-1,1.7258258E0,-1.0237461E-1,-1.7808827E0,1.7531781E-1,-1.84521E0,1.1881155E0,-1.729247E0,-1.3231323E0,1.2567198E0,-9.671743E-1,1.2899138E-1,-1.8993239E0,5.7869124E-1,-1.6173187E0,1.2577697E0,1.74648E0,1.1541268E0,-1.6944651E-1,3.9897102E-1,1.2860274E-1,-1.785638E0,-1.8500005E0,-5.2883897E-2,-1.8326792E0,1.3006972E0,7.5865954E-1,-1.8118589E0,-9.1529316E-1,-1.9173331E0,1.5314577E0,-1.8507446E0,1.8150356E-1,-1.0247402E0,8.53222E-1,-1.7732762E0,1.2272971E-1,-1.9037388E-1,1.4214851E-1,-1.1633264E-1,1.832373E-1,-1.712514E-1,1.3507959E-1,-9.440427E-3,1.7518501E-1,8.555108E-2,1.7253464E-1,-4.1982383E-2,8.018278E-2,-1.3494562E-1,1.88636E-2,-1.7901915E-1,-1.94261E-1,-1.840054E-1,1.766292E-1,-1.8463323E-1,6.0065743E-2,-1.8931668E-1,1.450664E-1,1.4085248E-2,1.2822603E-1,-4.9839344E-2,1.0868966E-1,-1.8167491E-1,-1.2433425E-1,-3.076087E-2,-1.231629E-1,-1.9220953E-1,1.6115002E-1,2.2865818E-3,-1.8544579E-1,-3.825627E-2,-1.0871561E-1,1.6737242E-1,1.14780344E-1,-9.497526E-2,-9.48193E-2,-1.8060808E-1],"categories":[],"categories_nodes":[],"categories_segments":[],"categories_sizes":[],"default_left":[0,0,0,0,0,0,0,0,0,0,0,0,0,0,0,0,0,0,0,0,0,0,0,0,0,0,0,0,0,0,0,0,0,0,0,0,0,0,0,0,0,0,0,0,0,0,0,0,0,0,0,0,0,0,0,0,0,0,0,0,0,0,0,0,0,0,0,0,0,0,0,0,0,0,0,0,0,0,0,0,0,0,0,0,0,0,0,0,0,0,0,0,0,0,0],"id":1,"left_children":[1,3,5,7,9,11,13,-1,15,17,19,21,23,25,27,-1,29,31,33,35,37,-1,39,41,43,45,47,49,51,53,55,57,59,61,63,-1,65,-1,67,69,71,73,75,77,79,81,83,85,87,-1,89,91,93,-1,-1,-1,-1,-1,-1,-1,-1,-1,-1,-1,-1,-1,-1,-1,-1,-1,-1,-1,-1,-1,-1,-1,-1,-1,-1,-1,-1,-1,-1,-1,-1,-1,-1,-1,-1,-1,-1,-1,-1,-1,-1],"loss_changes":[1.2914136E5,1.4753969E4,1.9372816E4,1.2164111E2,1.3352828E4,1.4616586E4,9.611632E3,0E0,4.5864746E1,6.488742E3,1.2510693E2,3.553047E2,6.709843E3,1.3103732E4,5.3006875E3,0E0,3.29209E1,2.964589E4,1.9495312E2,3.8065624E1,2.492334E1,0E0,2.1817188E2,8.709573E2,2.3576514E2,7.0586914E2,5.163086E3,3.8555312E3,7.4444917E3,2.560254E1,1.0410783E1,1.302167E3,4.8343945E3,7.551953E1,5.263001E2,0E0,2.6745117E1,0E0,1.4268066E1,1.9773438E1,2.2770354E2,1.4704712E1,4.2816992E2,2.5226412E1,1.7625488E1,3.4517957E2,1.5102539E0,6.7060156E2,1.9697266E0,0E0,3.9723516E3,2.0796504E3,3.86167E1,0E0,0E0,0E0,0E0,0E0,0E0,0E0,0E0,0E0,0E0,0E0,0E0,0E0,0E0,0E0,0E0,0E0,0E0,0E0,0E0,0E0,0E0,0E0,0E0,0E0,0E0,0E0,0E0,0E0,0E0,0E0,0E0,0E0,0E0,0E0,0E0,0E0,0E0,0E0,0E0,0E0,0E0],"parents":[2147483647,0,0,1,1,2,2,3,3,4,4,5,5,6,6,8,8,9,9,10,10,11,11,12,12,13,13,14,14,16,16,17,17,18,18,19,19,20,20,22,22,23,23,24,24,25,25,26,26,27,27,28,28,29,29,30,30,31,31,32,32,33,33,34,34,36,36,38,38,39,39,40,40,41,41,42,42,43,43,44,44,45,45,46,46,47,47,48,48,50,50,51,51,52,52],"right_children":[2,4,6,8,10,12,14,-1,16,18,20,22,24,26,28,-1,30,32,34,36,38,-1,40,42,44,46,48,50,52,54,56,58,60,62,64,-1,66,-1,68,70,72,74,76,78,80,82,84,86,88,-1,90,92,94,-1,-1,-1,-1,-1,-1,-1,-1,-1,-1,-1,-1,-1,-1,-1,-1,-1,-1,-1,-1,-1,-1,-1,-1,-1,-1,-1,-1,-1,-1,-1,-1,-1,-1,-1,-1,-1,-1,-1,-1,-1,-1],"split_conditions":[1E0,1E0,3E0,1E0,1.0268252E7,9.000434E6,5E4,1.6739334E-1,9.956861E-1,8.879599E6,1.0499572E7,9.9992996E-1,9.983809E6,2.9519E4,8.695118E6,1.4359482E-1,3.979195E0,3E0,4E0,3E0,9.9808705E-1,1.7531781E-1,1.0001321E0,1E0,1.0023502E7,4E0,4E0,1E0,1.0268252E7,9.973736E-1,5.17E2,9.9992996E-1,8.66025E-1,1.0072447E7,8.532455E6,-1.6944651E-1,4E0,1.2860274E-1,5.605493E6,5E4,1.0254556E0,8.005397E0,2E0,8.001989E0,9.9446076E-1,5.1078004E-1,1.66E2,1.9E1,3.7E1,1.8150356E-1,1.0001321E0,4E0,1.0646654E7,1.2272971E-1,-1.9037388E-1,1.4214851E-1,-1.1633264E-1,1.832373E-1,-1.712514E-1,1.3507959E-1,-9.440427E-3,1.7518501E-1,8.555108E-2,1.7253464E-1,-4.1982383E-2,8.018278E-2,-1.3494562E-1,1.88636E-2,-1.7901915E-1,-1.94261E-1,-1.840054E-1,1.766292E-1,-1.8463323E-1,6.0065743E-2,-1.8931668E-1,1.450664E-1,1.4085248E-2,1.2822603E-1,-4.9839344E-2,1.0868966E-1,-1.8167491E-1,-1.2433425E-1,-3.076087E-2,-1.231629E-1,-1.9220953E-1,1.6115002E-1,2.2865818E-3,-1.8544579E-1,-3.825627E-2,-1.0871561E-1,1.6737242E-1,1.14780344E-1,-9.497526E-2,-9.48193E-2,-1.8060808E-1],"split_indices":[22,2,2,5,0,0,0,0,6,8,10,30,0,0,8,0,5,2,2,2,16,0,30,2,14,2,2,30,0,30,24,30,25,12,12,0,2,0,12,12,30,28,2,7,30,26,24,18,28,0,30,2,14,0,0,0,0,0,0,0,0,0,0,0,0,0,0,0,0,0,0,0,0,0,0,0,0,0,0,0,0,0,0,0,0,0,0,0,0,0,0,0,0,0,0],"split_type":[0,0,0,0,0,0,0,0,0,0,0,0,0,0,0,0,0,0,0,0,0,0,0,0,0,0,0,0,0,0,0,0,0,0,0,0,0,0,0,0,0,0,0,0,0,0,0,0,0,0,0,0,0,0,0,0,0,0,0,0,0,0,0,0,0,0,0,0,0,0,0,0,0,0,0,0,0,0,0,0,0,0,0,0,0,0,0,0,0,0,0,0,0,0,0],"sum_hessian":[1.29926945E5,6.2363715E4,6.7563234E4,1.7018193E3,6.0661895E4,2.9139092E4,3.8424145E4,8.941378E0,1.6928779E3,5.906554E4,1.5963531E3,2.54467E4,3.6923928E3,8.962289E3,2.9461854E4,3.4740865E0,1.6894038E3,4.23857E4,1.667984E4,4.58431E1,1.55051E3,2.673189E1,2.5419967E4,2.5529778E3,1.1394149E3,2.9189854E3,6.043304E3,2.406031E4,5.4015435E3,1.6844391E3,4.9646907E0,3.954699E3,3.8431E4,1.6096264E4,5.8357605E2,1.0408782E1,3.543432E1,1.9832236E0,1.5485269E3,2.5352174E4,6.779253E1,9.117917E1,2.4617986E3,3.6355778E1,1.1030591E3,1.732439E3,1.1865465E3,5.5528696E3,4.9043433E2,4.8711444E2,2.3573195E4,3.9125212E3,1.4890222E3,1.9846139E0,1.6824545E3,3.4699287E0,1.4947622E0,1.057104E2,3.8489888E3,3.5957234E4,2.4737656E3,1.5998869E4,9.739473E1,4.281098E2,1.5546623E2,2.9238785E1,6.195536E0,3.4703019E0,1.5450565E3,2.4399817E3,2.2912193E4,3.3662384E1,3.4130142E1,1.9949467E0,8.918422E1,2.1797134E3,2.8208524E2,2.5651217E1,1.0704562E1,1.485105E0,1.101574E3,1.1244015E3,6.080374E2,9.974187E0,1.1765724E3,5.2730264E3,2.7984338E2,4.8893463E2,1.4996815E0,2.3040855E4,5.3234143E2,3.363358E3,5.491632E2,5.8081657E1,1.4309406E3],"tree_param":{"num_deleted":"0","num_feature":"32","num_nodes":"95","size_leaf_vector":"1"}},{"base_weights":[-2.5706915E-3,-4.4490293E-1,1.0923734E0,-1.2093791E0,2.1431884E-2,-1.623635E0,1.1605554E0,-1.686378E0,7.26662E-1,8.392602E-1,-2.8176758E-1,1.6129987E-1,-1.6522568E0,1.2206675E0,-1.586503E0,1.7560145E-1,-1.6959392E0,1.3133049E0,-1.6796618E0,-9.068063E-1,1.4006482E0,1.7041689E-1,-4.05637E-1,-1.6880058E0,-2.6193945E-2,1.0680877E0,1.6180425E0,-1.07615985E-1,-1.6341377E0,1.6433892E-1,-1.7009091E0,-1.5436523E0,1.3783784E0,1.1597852E-1,-1.6846969E0,-4.1970995E-1,-1.7427516E0,1.5635558E0,-1.7007297E0,-5.448735E-1,1.6631526E0,-1.7289883E0,-1.2342832E0,1.1376745E0,-9.008582E-1,-1.344354E0,1.2689329E0,1.6313465E0,1.2422106E0,-1.4888798E-1,3.8957733E-1,-1.6413119E0,5.3058803E-2,-1.7070551E-1,2.8728092E-2,1.391749E-1,-1.6518818E-1,1.6507737E-1,1.1667039E-1,-1.6860414E-1,-1.2727748E-2,5.100183E-2,-7.26689E-2,-1.7489953E-1,-3.093029E-2,1.6083707E-1,4.1994523E-2,-1.7072362E-1,-4.0134475E-2,3.78871E-2,-7.990189E-2,1.7059354E-1,-5.214856E-2,-1.8512587E-1,-1.6603173E-1,-1.2972334E-1,7.3657416E-2,1.6005182E-1,2.5994766E-3,1.2135251E-1,-1.55668E-1,-1.447652E-1,1.8634024E-1,1.5661399E-1,1.02854505E-1,1.635823E-1,9.919951E-2,1.6319261E-1,-5.2749207E-3,9.002825E-2,-1.394343E-1,-7.799449E-2,-1.651082E-1],"categories":[],"categories_nodes":[],"categories_segments":[],"categories_sizes":[],"default_left":[0,0,0,0,0,0,0,0,0,0,0,0,0,0,0,0,0,0,0,0,0,0,0,0,0,0,0,0,0,0,0,0,0,0,0,0,0,0,0,0,0,0,0,0,0,0,0,0,0,0,0,0,0,0,0,0,0,0,0,0,0,0,0,0,0,0,0,0,0,0,0,0,0,0,0,0,0,0,0,0,0,0,0,0,0,0,0,0,0,0,0,0,0],"id":2,"left_children":[1,3,5,7,9,11,13,15,17,19,21,-1,23,25,27,-1,29,31,33,35,37,-1,39,41,43,45,47,49,51,-1,53,55,57,-1,59,61,63,65,67,69,71,73,75,77,79,81,83,85,87,-1,89,91,-1,-1,-1,-1,-1,-1,-1,-1,-1,-1,-1,-1,-1,-1,-1,-1,-1,-1,-1,-1,-1,-1,-1,-1,-1,-1,-1,-1,-1,-1,-1,-1,-1,-1,-1,-1,-1,-1,-1,-1,-1],"loss_changes":[6.1901492E4,3.2453588E4,6.8120586E3,3.1853422E4,1.4020989E4,8.613281E1,5.92609E3,9.138125E2,9.627912E3,1.4992037E4,1.0148303E4,0E0,5.1901367E1,2.1268984E3,5.3973633E1,0E0,4.6079688E2,1.0214453E3,2.106836E1,1.5145503E3,5.8497324E3,0E0,1.1185898E4,1.4124512E1,2.1628155E1,1.2294338E4,4.6666016E1,1.7787663E1,1.2434692E1,0E0,3.3721875E2,4.124008E1,3.071963E2,0E0,2.5808105E0,6.7181976E2,1.171875E1,5.628672E2,4.2019043E0,8.541556E3,2.2976904E2,3.6386719E0,1.0375763E1,4.6539364E0,1.8686045E1,6.489497E2,1.6717031E3,2.528711E1,1.7022595E2,0E0,1.876314E1,4.959839E0,0E0,0E0,0E0,0E0,0E0,0E0,0E0,0E0,0E0,0E0,0E0,0E0,0E0,0E0,0E0,0E0,0E0,0E0,0E0,0E0,0E0,0E0,0E0,0E0,0E0,0E0,0E0,0E0,0E0,0E0,0E0,0E0,0E0,0E0,0E0,0E0,0E0,0E0,0E0,0E0,0E0],"parents":[2147483647,0,0,1,1,2,2,3,3,4,4,5,5,6,6,7,7,8,8,9,9,10,10,12,12,13,13,14,14,16,16,17,17,18,18,19,19,20,20,22,22,23,23,24,24,25,25,26,26,27,27,28,28,30,30,31,31,32,32,34,34,35,35,36,36,37,37,38,38,39,39,40,40,41,41,42,42,43,43,44,44,45,45,46,46,47,47,48,48,50,50,51,51],"right_children":[2,4,6,8,10,12,14,16,18,20,22,-1,24,26,28,-1,30,32,34,36,38,-1,40,42,44,46,48,50,52,-1,54,56,58,-1,60,62,64,66,68,70,72,74,76,78,80,82,84,86,88,-1,90,92,-1,-1,-1,-1,-1,-1,-1,-1,-1,-1,-1,-1,-1,-1,-1,-1,-1,-1,-1,-1,-1,-1,-1,-1,-1,-1,-1,-1,-1,-1,-1,-1,-1,-1,-1,-1,-1,-1,-1,-1,-1],"split_conditions":[0E0,3E0,1E0,9.000434E6,5E4,1E0,1.0268252E7,1E0,1.0268252E7,2.9519E4,1E0,1.6129987E-1,1.0007377E0,9.00662E6,1.0499572E7,1.7560145E-1,9.9992996E-1,1E0,9.9761516E-1,4E0,4E0,1.7041689E-1,1.0001321E0,5.605493E6,1.66E2,3E0,4E0,3E0,1.0001321E0,1.6433892E-1,1.0001321E0,9.983567E-1,1.6E1,1.1597852E-1,1.0001321E0,-7.82E0,2.9866192E0,1.9E1,2.9866192E0,-8.41E0,2E0,1.6002213E1,3.5E1,7.55E0,1.0093691E0,1.0001321E0,5E4,1.0072447E7,8.771411E6,-1.4888798E-1,4E0,1.200034E1,5.3058803E-2,-1.7070551E-1,2.8728092E-2,1.391749E-1,-1.6518818E-1,1.6507737E-1,1.1667039E-1,-1.6860414E-1,-1.2727748E-2,5.100183E-2,-7.26689E-2,-1.7489953E-1,-3.093029E-2,1.6083707E-1,4.1994523E-2,-1.7072362E-1,-4.0134475E-2,3.78871E-2,-7.990189E-2,1.7059354E-1,-5.214856E-2,-1.8512587E-1,-1.6603173E-1,-1.2972334E-1,7.3657416E-2,1.6005182E-1,2.5994766E-3,1.2135251E-1,-1.55668E-1,-1.447652E-1,1.8634024E-1,1.5661399E-1,1.02854505E-1,1.635823E-1,9.919951E-2,1.6319261E-1,-5.2749207E-3,9.002825E-2,-1.394343E-1,-7.799449E-2,-1.651082E-1],"split_indices":[23,2,2,0,0,4,0,4,0,0,30,0,4,8,10,0,30,2,30,2,2,0,30,12,24,2,2,2,30,0,30,30,28,0,30,23,4,18,4,23,30,28,28,23,4,30,0,12,12,0,2,28,0,0,0,0,0,0,0,0,0,0,0,0,0,0,0,0,0,0,0,0,0,0,0,0,0,0,0,0,0,0,0,0,0,0,0,0,0,0,0,0,0],"split_type":[0,0,0,0,0,0,0,0,0,0,0,0,0,0,0,0,0,0,0,0,0,0,0,0,0,0,0,0,0,0,0,0,0,0,0,0,0,0,0,0,0,0,0,0,0,0,0,0,0,0,0,0,0,0,0,0,0,0,0,0,0,0,0,0,0,0,0,0,0,0,0,0,0,0,0,0,0,0,0,0,0,0,0,0,0,0,0,0,0,0,0,0,0],"sum_hessian":[1.27806766E5,9.1032375E4,3.6774395E4,3.4490125E4,5.654225E4,9.0000916E2,3.5874383E4,2.7672373E4,6.8177495E3,1.5292256E4,4.1249992E4,7.4038467E0,8.9260535E2,3.5106723E4,7.6766187E2,7.6141335E1,2.7596232E4,5.481787E3,1.3359625E3,3.7203523E3,1.1571903E4,2.4210913E3,3.8828902E4,8.733662E2,1.9239086E1,2.536936E4,9.737363E3,2.4056429E1,7.436054E2,4.0520237E1,2.7555713E4,1.2157308E2,5.360214E3,1.9588968E0,1.3340037E3,2.3516016E3,1.3687509E3,1.0994866E4,5.770372E2,3.638107E4,2.4478315E3,7.984369E2,7.492935E1,8.125811E0,1.1113276E1,1.9493346E3,2.3420025E4,9.4012295E3,3.361336E2,5.839372E0,1.8217056E1,7.4139014E2,2.215249E0,2.7470934E4,8.477834E1,3.90135E0,1.1767174E2,2.340946E3,3.019268E3,1.3327705E3,1.2330952E0,5.8355707E2,1.7680446E3,1.3625956E3,6.1552463E0,1.0579866E4,4.150005E2,5.738498E2,3.1873407E0,7.8495938E3,2.8531477E4,2.4010303E3,4.680135E1,2.778174E2,5.206195E2,7.294135E1,1.9879919E0,5.4266963E0,2.6991146E0,2.4296482E0,8.683627E0,1.889051E3,6.0283524E1,1.04699E4,1.2950124E4,9.334317E3,6.691142E1,2.5817587E2,7.7957726E1,1.4547653E1,3.6694036E0,9.221567E0,7.321686E2],"tree_param":{"num_deleted":"0","num_feature":"32","num_nodes":"93","size_leaf_vector":"1"}},{"base_weights":[9.664909E-4,8.7661153E-1,-8.0916506E-1,-1.5482714E0,9.455343E-1,-1.349634E0,-4.109083E-1,1.4903879E-1,-1.564953E0,1.0118685E0,-1.540969E0,-1.5838559E0,2.3137458E-1,5.176235E-1,-6.010148E-1,-1.5754855E0,1.3263015E-1,8.231231E-1,1.4691194E0,-1.474635E-2,-1.5873185E0,1.500823E-1,-1.5864825E0,9.799411E-1,-1.4990578E0,-1.3151887E-1,1.1358244E0,-3.0209947E-1,-1.1268948E0,1.1906987E-1,-1.5802443E0,-1.3550564E0,1.0473624E0,1.4955455E0,8.880706E-1,-1.3196462E0,4.057534E-1,1.1224321E-1,-1.5915953E0,1.4710961E-1,-1.5875784E0,-1.5341958E0,1.0717888E0,6.4387774E-1,-1.5740262E-1,1.2288576E0,-6.2056077E-1,1.472328E0,-2.565435E-1,4.9377263E-1,-5.748047E-1,-1.377723E0,-5.088519E-1,9.568266E-2,-1.5830192E-1,1.7698288E-1,-1.4356492E-1,1.4241417E-1,7.589178E-2,1.5153815E-1,1.0645782E-1,1.0137186E-1,-1.9003691E-2,-1.4697713E-1,-2.2774104E-3,7.575462E-2,-1.18357554E-1,-1.5950872E-1,6.594802E-2,-1.5881602E-1,1.8726465E-3,-6.4066365E-2,-1.6514324E-1,1.219906E-1,-7.4258717E-3,1.0932892E-1,-8.446258E-2,-1.6742317E-1,1.4665988E-1,-1.2422661E-1,-5.3322604E-3,1.5371822E-1,-1.2741518E-1,-6.714499E-2,1.8108898E-1,-7.180452E-2,1.0511412E-1,-8.284359E-2,3.4913838E-2,1.5463613E-1,-1.3905345E-1,-1.6540986E-1,-7.9877535E-3],"categories":[],"categories_nodes":[],"categories_segments":[],"categories_sizes":[],"default_left":[0,0,0,0,0,0,0,0,0,0,0,0,0,0,0,0,0,0,0,0,0,0,0,0,0,0,0,0,0,0,0,0,0,0,0,0,0,0,0,0,0,0,0,0,0,0,0,0,0,0,0,0,0,0,0,0,0,0,0,0,0,0,0,0,0,0,0,0,0,0,0,0,0,0,0,0,0,0,0,0,0,0,0,0,0,0,0,0,0,0,0,0,0],"id":3,"left_children":[1,3,5,7,9,11,13,-1,15,17,19,21,23,25,27,29,-1,31,33,35,37,-1,39,41,43,45,47,49,51,-1,53,55,57,59,61,63,65,-1,67,-1,69,71,73,75,-1,77,79,81,83,85,87,89,91,-1,-1,-1,-1,-1,-1,-1,-1,-1,-1,-1,-1,-1,-1,-1,-1,-1,-1,-1,-1,-1,-1,-1,-1,-1,-1,-1,-1,-1,-1,-1,-1,-1,-1,-1,-1,-1,-1,-1,-1],"loss_changes":[8.8756305E4,1.0050504E4,1.3988152E4,8.658569E1,9.644965E3,1.0210305E4,6.6055137E3,0E0,5.2444336E1,4.91359E3,1.0747339E2,1.9694531E2,4.610912E3,2.5522986E3,4.8821455E3,2.3575928E1,0E0,1.9690662E4,2.5413672E2,2.5665228E1,1.8877686E1,0E0,8.2734375E1,5.7537036E2,1.737024E2,2.0652034E3,1.5266758E3,4.298748E3,1.7442705E3,0E0,1.3099609E1,9.502324E2,3.9710586E3,1.3441406E2,9.8567444E1,2.1853714E0,2.068997E1,0E0,1.2629639E1,0E0,2.2449219E1,8.158188E0,4.0707642E2,2.5703781E1,0E0,5.690215E2,8.051223E2,4.69292E2,5.45828E2,3.4149636E3,3.4570962E3,3.020752E2,1.5970596E3,0E0,0E0,0E0,0E0,0E0,0E0,0E0,0E0,0E0,0E0,0E0,0E0,0E0,0E0,0E0,0E0,0E0,0E0,0E0,0E0,0E0,0E0,0E0,0E0,0E0,0E0,0E0,0E0,0E0,0E0,0E0,0E0,0E0,0E0,0E0,0E0,0E0,0E0,0E0,0E0],"parents":[2147483647,0,0,1,1,2,2,3,3,4,4,5,5,6,6,8,8,9,9,10,10,11,11,12,12,13,13,14,14,15,15,17,17,18,18,19,19,20,20,22,22,23,23,24,24,25,25,26,26,27,27,28,28,30,30,31,31,32,32,33,33,34,34,35,35,36,36,38,38,40,40,41,41,42,42,43,43,45,45,46,46,47,47,48,48,49,49,50,50,51,51,52,52],"right_children":[2,4,6,8,10,12,14,-1,16,18,20,22,24,26,28,30,-1,32,34,36,38,-1,40,42,44,46,48,50,52,-1,54,56,58,60,62,64,66,-1,68,-1,70,72,74,76,-1,78,80,82,84,86,88,90,92,-1,-1,-1,-1,-1,-1,-1,-1,-1,-1,-1,-1,-1,-1,-1,-1,-1,-1,-1,-1,-1,-1,-1,-1,-1,-1,-1,-1,-1,-1,-1,-1,-1,-1,-1,-1,-1,-1,-1,-1],"split_conditions":[1E0,1E0,3E0,9.9919343E-1,1.0268252E7,9.000434E6,1.5E1,1.4903879E-1,2.9866192E0,8.883952E6,1.0499572E7,1E0,9.983809E6,9.039649E6,4E0,9.945175E-1,1.3263015E-1,3E0,1.0023502E7,3E0,9.990162E-1,1.500823E-1,1E0,1E0,1.0023502E7,5E4,7E0,5.1212E4,8E0,1.1906987E-1,1E0,1E0,5E4,4E0,4E0,3.60109E5,4E0,1.1224321E-1,2.9866192E0,1.4710961E-1,4E0,1.4001156E1,2E0,2.3000565E1,-1.5740262E-1,2.9296E4,4E0,1.0023502E7,4E0,2.9519E4,8.304248E6,1E0,1.9899998E5,9.568266E-2,-1.5830192E-1,1.7698288E-1,-1.4356492E-1,1.4241417E-1,7.589178E-2,1.5153815E-1,1.0645782E-1,1.0137186E-1,-1.9003691E-2,-1.4697713E-1,-2.2774104E-3,7.575462E-2,-1.18357554E-1,-1.5950872E-1,6.594802E-2,-1.5881602E-1,1.8726465E-3,-6.4066365E-2,-1.6514324E-1,1.219906E-1,-7.4258717E-3,1.0932892E-1,-8.446258E-2,-1.6742317E-1,1.4665988E-1,-1.2422661E-1,-5.3322604E-3,1.5371822E-1,-1.2741518E-1,-6.714499E-2,1.8108898E-1,-7.180452E-2,1.0511412E-1,-8.284359E-2,3.4913838E-2,1.5463613E-1,-1.3905345E-1,-1.6540986E-1,-7.9877535E-3],"split_indices":[22,2,2,6,0,0,27,0,4,9,10,4,0,11,2,4,0,2,14,2,5,0,5,2,14,14,7,0,1,0,5,4,0,2,2,24,2,0,4,0,4,27,2,27,0,12,2,14,4,0,0,4,0,0,0,0,0,0,0,0,0,0,0,0,0,0,0,0,0,0,0,0,0,0,0,0,0,0,0,0,0,0,0,0,0,0,0,0,0,0,0,0,0],"split_type":[0,0,0,0,0,0,0,0,0,0,0,0,0,0,0,0,0,0,0,0,0,0,0,0,0,0,0,0,0,0,0,0,0,0,0,0,0,0,0,0,0,0,0,0,0,0,0,0,0,0,0,0,0,0,0,0,0,0,0,0,0,0,0,0,0,0,0,0,0,0,0,0,0,0,0,0,0,0,0,0,0,0,0,0,0,0,0,0,0,0,0,0,0],"sum_hessian":[1.25114805E5,6.0126223E4,6.498858E4,1.6611499E3,5.8465074E4,2.7570553E4,3.7418023E4,8.587188E0,1.6525627E3,5.6946465E4,1.5186079E3,2.4013082E4,3.557471E3,6.358697E3,3.1059328E4,1.647018E3,5.5448256E0,4.0309992E4,1.6636473E4,4.479791E1,1.4738099E3,1.9944504E1,2.3993137E4,2.4835483E3,1.0739227E3,3.1021106E3,3.256586E3,1.9804076E4,1.1255253E4,2.4005945E0,1.6446173E3,3.7620237E3,3.654797E4,1.5911257E4,7.2521625E2,1.0396642E1,3.4401264E1,1.9103734E0,1.4718997E3,8.116091E0,2.3985021E4,8.6978935E1,2.3965693E3,3.6043644E1,1.037879E3,8.198914E2,2.2822192E3,2.6226855E3,6.3390045E2,5.0538735E3,1.4750202E4,8.005181E3,3.2500723E3,1.421128E0,1.6431962E3,9.405855E1,3.667965E3,1.5845693E4,2.0702277E4,1.5208733E4,7.0252264E2,6.495716E2,7.564464E1,9.198509E0,1.1981332E0,2.8595173E1,5.806093E0,1.4699109E3,1.9887397E0,2.3976348E4,8.673335E0,1.083829E1,7.614064E1,2.1222249E3,2.7434454E2,2.7888897E1,8.154748E0,6.160327E1,7.5828815E2,1.0882661E3,1.1939531E3,2.5626133E3,6.007225E1,5.285106E2,1.0538984E2,1.592093E3,3.4617805E3,1.157332E4,3.176882E3,3.4398117E1,7.9707827E3,8.848646E2,2.3652078E3],"tree_param":{"num_deleted":"0","num_feature":"32","num_nodes":"93","size_leaf_vector":"1"}},{"base_weights":[-1.3262652E-4,8.107345E-1,-7.481452E-1,-1.4439216E0,8.7426955E-1,-1.2707163E0,-3.7466902E-1,1.462886E-1,-1.464329E0,9.354262E-1,-1.4498309E0,-1.4939506E0,2.218274E-1,5.9478515E-1,-5.391435E-1,-1.4775336E0,6.557004E-1,7.5790656E-1,1.4100847E0,2.441392E-1,-1.4947473E0,1.5135081E-1,-1.4969132E0,9.041147E-1,-1.4153217E0,9.3272924E-1,-5.981175E-1,-2.6069874E-1,-1.0294086E0,-1.4855801E0,7.110735E-1,1.5239945E-1,-1.23884104E-1,-1.2596653E0,9.6539855E-1,1.4300407E0,8.9021593E-1,-1.2065334E0,7.3340774E-1,1.19956926E-1,-1.4991938E0,-1.500566E0,-1.1274728E-1,-1.4393913E0,9.8714805E-1,6.710798E-1,-1.4914789E0,2.3654984E-1,1.5320499E0,-1.2115732E0,4.642718E-1,5.037703E-1,-5.2335143E-1,-1.2757465E0,-4.3753693E-1,-1.5063104E-1,-1.22869015E-1,-1.0266111E-1,1.3184461E-1,1.6995996E-1,-1.3377734E-1,1.05518855E-1,-2.8936421E-2,1.4357111E-1,6.327068E-2,1.4402474E-1,-4.1720536E-2,-1.3671246E-1,1.5907463E-4,1.048127E-1,-7.273789E-2,4.4685356E-2,-1.5035604E-1,-1.5013455E-1,3.4703206E-2,1.5937634E-1,-1.6079566E-1,-2.4510322E-2,-1.4986607E-1,1.1243385E-1,-1.944283E-4,1.0841572E-1,-4.942026E-2,-1.4950189E-1,1.8710686E-2,1.2910701E-1,-2.791048E-2,1.5691854E-1,-1.2929519E-1,-1.266204E-1,1.6662528E-1,1.05650894E-1,-4.0935267E-2,-6.548925E-2,1.02840245E-1,-7.800916E-2,3.3105925E-2,1.5522753E-1,-1.2920311E-1,-1.5505645E-1,-3.6969415E-3],"categories":[],"categories_nodes":[],"categories_segments":[],"categories_sizes":[],"default_left":[0,0,0,0,0,0,0,0,0,0,0,0,0,0,0,0,0,0,0,0,0,0,0,0,0,0,0,0,0,0,0,0,0,0,0,0,0,0,0,0,0,0,0,0,0,0,0,0,0,0,0,0,0,0,0,0,0,0,0,0,0,0,0,0,0,0,0,0,0,0,0,0,0,0,0,0,0,0,0,0,0,0,0,0,0,0,0,0,0,0,0,0,0,0,0,0,0,0,0,0,0],"id":4,"left_children":[1,3,5,7,9,11,13,-1,15,17,19,21,23,25,27,29,31,33,35,37,39,-1,41,43,45,47,49,51,53,55,57,-1,-1,59,61,63,65,67,69,-1,71,73,75,77,79,81,83,85,87,89,91,93,95,97,99,-1,-1,-1,-1,-1,-1,-1,-1,-1,-1,-1,-1,-1,-1,-1,-1,-1,-1,-1,-1,-1,-1,-1,-1,-1,-1,-1,-1,-1,-1,-1,-1,-1,-1,-1,-1,-1,-1,-1,-1,-1,-1,-1,-1,-1,-1],"loss_changes":[7.389879E4,8.375941E3,1.2368227E4,9.721265E1,8.0831836E3,8.80127E3,5.8938115E3,0E0,4.5535156E1,4.6672773E3,1.1132007E2,2.0699219E2,3.8410593E3,2.1620217E3,4.313587E3,2.8924316E1,1.9237875E1,1.688244E4,1.5516797E2,2.8230421E1,1.8819092E1,0E0,1.1589453E2,4.7368384E2,1.6173645E2,1.7430198E3,7.7235706E2,4.0472778E3,1.6682949E3,6.547119E0,8.185168E0,0E0,0E0,8.715581E2,4.119918E3,6.473828E1,4.0337674E2,1.960741E0,1.4293581E1,0E0,1.2729004E1,3.3492188E1,1.5949034E2,5.540039E0,3.181399E2,1.801559E1,6.0808105E0,1.0521123E3,2.375708E2,1.2018152E2,2.2509377E2,3.1340154E3,3.2910894E3,3.7419824E2,1.5003733E3,0E0,0E0,0E0,0E0,0E0,0E0,0E0,0E0,0E0,0E0,0E0,0E0,0E0,0E0,0E0,0E0,0E0,0E0,0E0,0E0,0E0,0E0,0E0,0E0,0E0,0E0,0E0,0E0,0E0,0E0,0E0,0E0,0E0,0E0,0E0,0E0,0E0,0E0,0E0,0E0,0E0,0E0,0E0,0E0,0E0,0E0],"parents":[2147483647,0,0,1,1,2,2,3,3,4,4,5,5,6,6,8,8,9,9,10,10,11,11,12,12,13,13,14,14,15,15,16,16,17,17,18,18,19,19,20,20,22,22,23,23,24,24,25,25,26,26,27,27,28,28,29,29,30,30,33,33,34,34,35,35,36,36,37,37,38,38,40,40,41,41,42,42,43,43,44,44,45,45,46,46,47,47,48,48,49,49,50,50,51,51,52,52,53,53,54,54],"right_children":[2,4,6,8,10,12,14,-1,16,18,20,22,24,26,28,30,32,34,36,38,40,-1,42,44,46,48,50,52,54,56,58,-1,-1,60,62,64,66,68,70,-1,72,74,76,78,80,82,84,86,88,90,92,94,96,98,100,-1,-1,-1,-1,-1,-1,-1,-1,-1,-1,-1,-1,-1,-1,-1,-1,-1,-1,-1,-1,-1,-1,-1,-1,-1,-1,-1,-1,-1,-1,-1,-1,-1,-1,-1,-1,-1,-1,-1,-1,-1,-1,-1,-1,-1,-1],"split_conditions":[1E0,1E0,3E0,9.9992996E-1,1.0268252E7,9.000434E6,1.4E1,1.462886E-1,1.0001321E0,8.879599E6,1.0401693E7,9.9992996E-1,9.983809E6,7E0,4E0,2.9866192E0,1.0213543E0,3E0,4E0,3E0,9.9761516E-1,1.5135081E-1,1.0001321E0,1E0,1.0023502E7,9.039649E6,1.8577444E7,5E4,8E0,8.304248E6,-7.98E0,1.5239945E-1,-1.23884104E-1,1E0,8.66025E-1,1.0072447E7,7.806663E6,3.18744E5,4E0,1.19956926E-1,5.605493E6,4E0,1.0254556E0,1.1000739E1,2E0,2.3000565E1,1.0001321E0,5E4,1.0023502E7,4E0,1.8990091E1,2.9519E4,8.360314E6,9.9992996E-1,1.9899998E5,-1.5063104E-1,-1.22869015E-1,-1.0266111E-1,1.3184461E-1,1.6995996E-1,-1.3377734E-1,1.05518855E-1,-2.8936421E-2,1.4357111E-1,6.327068E-2,1.4402474E-1,-4.1720536E-2,-1.3671246E-1,1.5907463E-4,1.048127E-1,-7.273789E-2,4.4685356E-2,-1.5035604E-1,-1.5013455E-1,3.4703206E-2,1.5937634E-1,-1.6079566E-1,-2.4510322E-2,-1.4986607E-1,1.1243385E-1,-1.944283E-4,1.0841572E-1,-4.942026E-2,-1.4950189E-1,1.8710686E-2,1.2910701E-1,-2.791048E-2,1.5691854E-1,-1.2929519E-1,-1.266204E-1,1.6662528E-1,1.05650894E-1,-4.0935267E-2,-6.548925E-2,1.02840245E-1,-7.800916E-2,3.3105925E-2,1.5522753E-1,-1.2920311E-1,-1.5505645E-1,-3.6969415E-3],"split_indices":[22,2,2,30,0,0,28,0,30,8,8,30,0,7,2,4,30,2,2,2,30,0,30,2,14,11,11,0,1,0,23,0,0,30,25,12,12,24,2,0,12,4,30,28,2,27,30,14,14,4,27,0,8,30,0,0,0,0,0,0,0,0,0,0,0,0,0,0,0,0,0,0,0,0,0,0,0,0,0,0,0,0,0,0,0,0,0,0,0,0,0,0,0,0,0,0,0,0,0,0,0],"split_type":[0,0,0,0,0,0,0,0,0,0,0,0,0,0,0,0,0,0,0,0,0,0,0,0,0,0,0,0,0,0,0,0,0,0,0,0,0,0,0,0,0,0,0,0,0,0,0,0,0,0,0,0,0,0,0,0,0,0,0,0,0,0,0,0,0,0,0,0,0,0,0,0,0,0,0,0,0,0,0,0,0,0,0,0,0,0,0,0,0,0,0,0,0,0,0,0,0,0,0,0,0],"sum_hessian":[1.2183485E5,5.8461176E4,6.3373676E4,1.6016582E3,5.6859516E4,2.641341E4,3.6960266E4,1.0673369E1,1.5909849E3,5.540225E4,1.4572644E3,2.2976846E4,3.4365637E3,5.360646E3,3.159962E4,1.5814379E3,9.546922E0,4.032392E4,1.5078327E4,3.7527405E1,1.4197369E3,2.2109964E1,2.2954736E4,2.4259773E3,1.01058636E3,4.1774194E3,1.1832264E3,2.0154473E4,1.1445146E4,1.575965E3,5.472897E0,6.680668E0,2.8662539E0,3.7598198E3,3.6564105E4,1.4519234E4,5.5909326E2,9.094974E0,2.8432432E1,1.8963408E0,1.4178406E3,2.2894234E4,6.0501892E1,8.245508E1,2.3435222E3,3.5313965E1,9.752724E2,1.9331914E3,2.244228E3,7.500084E2,4.3321802E2,5.153611E3,1.5000862E4,8.080765E3,3.3643813E3,1.4537853E3,1.22179726E2,1.2387112E0,4.2341857E0,9.615237E1,3.6636675E3,3.412248E4,2.4416243E3,1.4415912E4,1.0332233E2,3.934623E2,1.6563098E2,7.911694E0,1.1832794E0,2.3625029E1,4.8074036E0,2.9474225E0,1.4148932E3,2.2884768E4,9.467629E0,2.8223717E1,3.2278175E1,4.1413655E0,7.831371E1,2.057942E3,2.8558026E2,2.6123236E1,9.190729E0,9.733291E2,1.9433084E0,6.3437756E2,1.2988138E3,2.2155486E3,2.8679537E1,7.3658563E2,1.3422836E1,2.580646E2,1.7515343E2,1.6061472E3,3.5474636E3,1.1534862E4,3.4660005E3,4.5725224E1,8.03504E3,8.8961176E2,2.4747695E3],"tree_param":{"num_deleted":"0","num_feature":"32","num_nodes":"101","size_leaf_vector":"1"}},{"base_weights":[-5.2769395E-4,7.560522E-1,-6.973214E-1,-1.3579237E0,8.154724E-1,-1.2066858E0,-3.4348628E-1,1.4112543E-1,-1.3775653E0,8.725826E-1,-1.374225E0,-1.4215336E0,1.948141E-1,5.540547E-1,-4.9584147E-1,-1.3887837E0,1.2420964E-1,7.010081E-1,1.3084064E0,-1.1541417E-1,-1.4130772E0,-1.4248147E0,1.0136126E0,8.300505E-1,-1.3583158E0,1.8230619E-1,1.233955E0,1.625665E0,-5.5235887E-1,-1.4119346E0,-1.1087096E0,-1.1721092E0,8.9191806E-1,1.3336526E0,8.171963E-1,-1.1917804E0,2.6100644E-1,1.3934366E-1,-1.4191105E0,1.4330451E-1,-1.4274248E0,1.4962661E-1,-1.2020113E-1,-1.3854121E0,9.1144335E-1,7.6521724E-1,-1.4111428E0,-2.1636732E-1,1.1654258E0,-1.631046E-1,1.2694561E0,2.0494783E-1,1.6017172E0,-6.0489464E-1,1.6011384E0,-1.4638342E-1,-1.3349105E-1,-7.767924E-2,-1.4200374E-1,-1.2567632E-1,1.8544851E-1,1.268103E-1,6.1303224E-2,8.5506044E-2,1.3525502E-1,1.16456114E-1,-4.0775042E-2,2.9625653E-3,-1.3349923E-1,5.4126162E-2,-1.2697363E-1,-1.4226869E-1,9.496987E-2,8.60452E-2,-1.4276043E-1,5.2672263E-2,-1.4440116E-1,1.3705361E-1,6.0421355E-2,1.219926E-1,-2.6732152E-2,-1.4197676E-1,6.336835E-2,1.0620387E-1,-5.366984E-2,1.335052E-1,-2.007328E-2,1.3799025E-1,7.7274576E-2,1.4823984E-1,1.6424601E-1,-4.7359098E-2,-1.2855408E-1,1.6247967E-1,-7.066363E-2],"categories":[],"categories_nodes":[],"categories_segments":[],"categories_sizes":[],"default_left":[0,0,0,0,0,0,0,0,0,0,0,0,0,0,0,0,0,0,0,0,0,0,0,0,0,0,0,0,0,0,0,0,0,0,0,0,0,0,0,0,0,0,0,0,0,0,0,0,0,0,0,0,0,0,0,0,0,0,0,0,0,0,0,0,0,0,0,0,0,0,0,0,0,0,0,0,0,0,0,0,0,0,0,0,0,0,0,0,0,0,0,0,0,0,0],"id":5,"left_children":[1,3,5,7,9,11,13,-1,15,17,19,21,23,25,27,29,-1,31,33,35,37,39,41,43,45,47,49,51,53,55,57,59,61,63,65,67,69,-1,71,-1,73,-1,-1,75,77,79,81,83,85,-1,87,-1,89,91,93,-1,-1,-1,-1,-1,-1,-1,-1,-1,-1,-1,-1,-1,-1,-1,-1,-1,-1,-1,-1,-1,-1,-1,-1,-1,-1,-1,-1,-1,-1,-1,-1,-1,-1,-1,-1,-1,-1,-1,-1],"loss_changes":[6.2117426E4,7.0971406E3,1.1054656E4,8.596875E1,6.8726055E3,7.5710273E3,4.949961E3,0E0,4.68208E1,4.0034531E3,6.816382E1,1.756289E2,3.2992634E3,1.3275074E3,3.7111885E3,8.344482E0,0E0,1.3742285E4,1.8649023E2,1.7699642E1,2.492334E1,1.6444531E2,3.3793465E1,4.2919727E2,1.09979126E2,1.3318231E3,1.9092236E2,4.869629E0,3.4111172E3,3.6745605E0,1.1436386E1,9.1308154E2,3.657838E3,1.289414E2,3.1619247E2,2.0160751E0,1.4680135E1,0E0,1.2811035E1,0E0,1.0160156E1,0E0,0E0,1.0228119E1,3.221223E2,1.1693598E1,1.7610962E1,9.90771E2,2.2745227E2,0E0,9.957861E1,0E0,1.2834473E0,2.6291465E3,4.0354492E1,0E0,0E0,0E0,0E0,0E0,0E0,0E0,0E0,0E0,0E0,0E0,0E0,0E0,0E0,0E0,0E0,0E0,0E0,0E0,0E0,0E0,0E0,0E0,0E0,0E0,0E0,0E0,0E0,0E0,0E0,0E0,0E0,0E0,0E0,0E0,0E0,0E0,0E0,0E0,0E0],"parents":[2147483647,0,0,1,1,2,2,3,3,4,4,5,5,6,6,8,8,9,9,10,10,11,11,12,12,13,13,14,14,15,15,17,17,18,18,19,19,20,20,21,21,22,22,23,23,24,24,25,25,26,26,27,27,28,28,29,29,30,30,31,31,32,32,33,33,34,34,35,35,36,36,38,38,40,40,43,43,44,44,45,45,46,46,47,47,48,48,50,50,52,52,53,53,54,54],"right_children":[2,4,6,8,10,12,14,-1,16,18,20,22,24,26,28,30,-1,32,34,36,38,40,42,44,46,48,50,52,54,56,58,60,62,64,66,68,70,-1,72,-1,74,-1,-1,76,78,80,82,84,86,-1,88,-1,90,92,94,-1,-1,-1,-1,-1,-1,-1,-1,-1,-1,-1,-1,-1,-1,-1,-1,-1,-1,-1,-1,-1,-1,-1,-1,-1,-1,-1,-1,-1,-1,-1,-1,-1,-1,-1,-1,-1,-1,-1,-1],"split_conditions":[1E0,1E0,3E0,1E0,1.0268252E7,9.000434E6,1.4E1,1.4112543E-1,1.0009545E0,8.883952E6,1.0499572E7,1.0009545E0,9.983809E6,1.47355E5,1E0,8.304248E6,1.2420964E-1,3E0,4E0,3E0,9.9726343E-1,1E0,2E0,1E0,1.0015992E7,8.936026E6,2.9519E4,2.9519E4,1.0009545E0,3.14022E-1,1.0268252E7,1.0001321E0,5E4,1.2100705E6,2E6,1E0,4E0,1.3934366E-1,1.0009545E0,1.4330451E-1,9.9609613E-1,1.4962661E-1,-1.2020113E-1,8.005397E0,1.5999895E1,1.0382175E7,1.0001321E0,4.97E4,1.901359E1,-1.631046E-1,-1.42E0,2.0494783E-1,5E4,8.66025E-1,2E0,-1.4638342E-1,-1.3349105E-1,-7.767924E-2,-1.4200374E-1,-1.2567632E-1,1.8544851E-1,1.268103E-1,6.1303224E-2,8.5506044E-2,1.3525502E-1,1.16456114E-1,-4.0775042E-2,2.9625653E-3,-1.3349923E-1,5.4126162E-2,-1.2697363E-1,-1.4226869E-1,9.496987E-2,8.60452E-2,-1.4276043E-1,5.2672263E-2,-1.4440116E-1,1.3705361E-1,6.0421355E-2,1.219926E-1,-2.6732152E-2,-1.4197676E-1,6.336835E-2,1.0620387E-1,-5.366984E-2,1.335052E-1,-2.007328E-2,1.3799025E-1,7.7274576E-2,1.4823984E-1,1.6424601E-1,-4.7359098E-2,-1.2855408E-1,1.6247967E-1,-7.066363E-2],"split_indices":[22,2,2,17,0,0,28,0,17,9,10,17,0,24,17,0,0,2,2,2,17,17,17,2,9,10,0,0,17,26,0,30,0,12,0,1,2,0,17,0,30,0,0,28,28,10,30,13,27,0,23,0,0,25,17,0,0,0,0,0,0,0,0,0,0,0,0,0,0,0,0,0,0,0,0,0,0,0,0,0,0,0,0,0,0,0,0,0,0,0,0,0,0,0,0],"split_type":[0,0,0,0,0,0,0,0,0,0,0,0,0,0,0,0,0,0,0,0,0,0,0,0,0,0,0,0,0,0,0,0,0,0,0,0,0,0,0,0,0,0,0,0,0,0,0,0,0,0,0,0,0,0,0,0,0,0,0,0,0,0,0,0,0,0,0,0,0,0,0,0,0,0,0,0,0,0,0,0,0,0,0,0,0,0,0,0,0,0,0,0,0,0,0],"sum_hessian":[1.1782761E5,5.649028E4,6.1337332E4,1.5438358E3,5.4946445E4,2.5141871E4,3.619546E4,1.0374126E1,1.5334617E3,5.355038E4,1.3960631E3,2.1799955E4,3.3419153E3,5.252105E3,3.0943355E4,1.5273906E3,6.0710444E0,3.8425633E4,1.5124746E4,4.1917126E1,1.354146E3,2.1771037E4,2.8919182E1,2.3721584E3,9.6975684E2,3.3963525E3,1.8557524E3,8.022268E2,3.0141129E4,1.4070431E3,1.20347496E2,3.553662E3,3.4871973E4,1.438376E4,7.4098596E2,1.0299592E1,3.1617535E1,2.4115746E0,1.3517345E3,1.9364925E1,2.1751672E4,2.401287E1,4.9063106E0,8.349359E1,2.2886648E3,2.3211664E1,9.4654517E2,2.4169954E3,9.7935724E2,2.216366E1,1.8335887E3,3.8381985E1,7.638448E2,2.9424033E4,7.170966E2,8.2986664E2,5.771765E2,5.9939285E1,6.0408207E1,3.4575396E3,9.612272E1,1.4844672E4,2.00273E4,5.4813605E2,1.3835624E4,5.773211E2,1.6366481E2,1.1641431E0,9.135448E0,2.7271038E1,4.346497E0,1.3500956E3,1.6388534E0,1.329853E0,2.1750342E4,2.2451334E0,8.124846E1,9.161713E2,1.3724935E3,1.5988971E1,7.222694E0,9.428739E2,3.6712804E0,4.838175E2,1.9331777E3,8.7120825E2,1.0814894E2,1.4985907E3,3.3499805E2,2.0394812E2,5.5989667E2,2.4667174E4,4.756858E3,7.1011285E2,6.9837894E0],"tree_param":{"num_deleted":"0","num_feature":"32","num_nodes":"95","size_leaf_vector":"1"}},{"base_weights":[-1.9150921E-3,7.050824E-1,-6.501873E-1,7.869498E-1,-1.4570323E0,-1.1515615E0,-3.1716755E-1,-1.3008374E0,8.4341633E-1,-6.980735E-1,-1.5017635E0,-1.3590908E0,1.7669076E-1,5.888064E-1,-4.445395E-1,1.3049915E-1,-1.3165207E0,6.944915E-1,1.3094547E0,-1.5518864E0,-4.3121806E-1,-1.7699903E0,-1.3900554E-1,-1.3625259E0,9.656529E-1,8.244259E-1,-1.442696E0,3.6583338E-2,1.16039E0,-1.969023E-1,-8.9040875E-1,-1.339181E0,-2.4421118E-1,-1.1021776E0,8.65885E-1,1.3235793E0,1.0124215E-1,-1.7235526E0,9.145535E-2,2.0695269E-1,-6.8789923E-1,-1.5202467E0,-1.9467754E0,1.3664E-1,-1.3652012E0,1.4319128E-1,-1.1682079E-1,-1.2853428E0,9.016588E-1,-2.2661395E0,-1.3701011E-1,5.198869E-1,-1.1679262E0,1.2419282E0,-3.5775462E-1,5.098019E-1,-4.481418E-1,-1.1509457E0,-2.891274E-1,-1.346562E-1,9.2861004E-2,7.059583E-3,-1.0237359E-1,1.7276607E-1,-1.1923112E-1,1.20550446E-1,6.1146524E-2,1.3575287E-1,1.2717548E-1,-4.585788E-2,5.2677978E-2,-1.7994498E-1,-1.1655352E-2,5.055491E-2,-3.6265153E-2,6.331751E-2,-1.0895272E-1,-1.5898636E-1,-2.786073E-3,-1.3236432E-1,-2.1379219E-1,-1.7723309E-1,-2.1021883E-1,-1.3658333E-1,1.3993775E-2,-6.132872E-2,-1.4265327E-1,1.0641231E-1,-1.4219694E-2,-1.2249112E-1,-2.390348E-1,-1.7713973E-3,1.04515694E-1,-1.2761676E-1,-1.5133602E-2,1.264948E-1,-1.216039E-1,-1.11734055E-1,-7.357636E-4,-5.4176122E-2,9.696347E-2,-6.743752E-2,3.468604E-2,-9.6666716E-2,-1.3820028E-1,-1.4294606E-1,9.216448E-3],"categories":[],"categories_nodes":[],"categories_segments":[],"categories_sizes":[],"default_left":[0,0,0,0,0,0,0,0,0,0,0,0,0,0,0,0,0,0,0,0,0,0,0,0,0,0,0,0,0,0,0,0,0,0,0,0,0,0,0,0,0,0,0,0,0,0,0,0,0,0,0,0,0,0,0,0,0,0,0,0,0,0,0,0,0,0,0,0,0,0,0,0,0,0,0,0,0,0,0,0,0,0,0,0,0,0,0,0,0,0,0,0,0,0,0,0,0,0,0,0,0,0,0,0,0,0,0],"id":6,"left_children":[1,3,5,7,9,11,13,15,17,19,21,23,25,27,29,-1,31,33,35,37,39,41,-1,43,45,47,49,51,53,55,57,59,61,63,65,67,69,71,73,75,77,79,81,-1,83,-1,-1,85,87,89,-1,91,93,95,97,99,101,103,105,-1,-1,-1,-1,-1,-1,-1,-1,-1,-1,-1,-1,-1,-1,-1,-1,-1,-1,-1,-1,-1,-1,-1,-1,-1,-1,-1,-1,-1,-1,-1,-1,-1,-1,-1,-1,-1,-1,-1,-1,-1,-1,-1,-1,-1,-1,-1,-1],"loss_changes":[5.223512E4,9.650732E3,9.92648E3,6.1935293E3,6.648486E1,6.541051E3,4.122913E3,5.826465E1,3.5487578E3,2.4982517E1,5.3799805E1,1.6520312E2,3.365447E3,1.3900763E3,3.4583296E3,0E0,3.3104492E1,1.193693E4,2.1121484E2,7.6119843E0,1.4419777E1,2.1253052E1,0E0,1.5147266E2,3.238141E1,3.745592E2,5.169458E1,1.3052036E3,2.6832935E2,3.5760452E3,1.7517979E3,2.3800293E1,7.3597493E0,8.6316455E2,3.0568203E3,1.9808594E1,3.4591335E1,2.714447E0,8.3186567E-1,1.4930056E1,3.7098606E1,2.532721E1,4.8831787E0,0E0,1.9671875E1,0E0,0E0,6.8431396E0,3.7515625E2,6.479645E0,0E0,4.5183527E2,7.0453186E1,1.1775659E2,2.955721E1,2.5548223E3,2.672551E3,3.309082E2,1.4708645E3,0E0,0E0,0E0,0E0,0E0,0E0,0E0,0E0,0E0,0E0,0E0,0E0,0E0,0E0,0E0,0E0,0E0,0E0,0E0,0E0,0E0,0E0,0E0,0E0,0E0,0E0,0E0,0E0,0E0,0E0,0E0,0E0,0E0,0E0,0E0,0E0,0E0,0E0,0E0,0E0,0E0,0E0,0E0,0E0,0E0,0E0,0E0,0E0],"parents":[2147483647,0,0,1,1,2,2,3,3,4,4,5,5,6,6,7,7,8,8,9,9,10,10,11,11,12,12,13,13,14,14,16,16,17,17,18,18,19,19,20,20,21,21,23,23,24,24,25,25,26,26,27,27,28,28,29,29,30,30,31,31,32,32,33,33,34,34,35,35,36,36,37,37,38,38,39,39,40,40,41,41,42,42,44,44,47,47,48,48,49,49,51,51,52,52,53,53,54,54,55,55,56,56,57,57,58,58],"right_children":[2,4,6,8,10,12,14,16,18,20,22,24,26,28,30,-1,32,34,36,38,40,42,-1,44,46,48,50,52,54,56,58,60,62,64,66,68,70,72,74,76,78,80,82,-1,84,-1,-1,86,88,90,-1,92,94,96,98,100,102,104,106,-1,-1,-1,-1,-1,-1,-1,-1,-1,-1,-1,-1,-1,-1,-1,-1,-1,-1,-1,-1,-1,-1,-1,-1,-1,-1,-1,-1,-1,-1,-1,-1,-1,-1,-1,-1,-1,-1,-1,-1,-1,-1,-1,-1,-1,-1,-1,-1],"split_conditions":[1E0,1E0,3E0,1E0,1.683E5,9.000434E6,1.3E1,1E0,8.671539E6,-1.147E1,1.0268252E7,1.0009545E0,1E0,9.039649E6,4E0,1.3049915E-1,9.173882E6,3E0,4E0,1.51526E5,-6.7832994E-1,5E6,-1.3900554E-1,1E0,2E0,1E0,9.983809E6,2.553288E6,1.900172E1,5E4,8E0,1.0009545E0,2.1198764E7,1E0,5E4,9E0,-7.98E0,8.410088E6,5E0,1.5975275E5,5.1078004E-1,4E0,9.00361E6,1.3664E-1,4E0,1.4319128E-1,-1.1682079E-1,1.6992601E1,2E0,1E0,-1.3701011E-1,1.56569E5,2.26202E5,1.0229794E7,-6.19E0,2.9519E4,8.304248E6,4E0,1.9899998E5,-1.346562E-1,9.2861004E-2,7.059583E-3,-1.0237359E-1,1.7276607E-1,-1.1923112E-1,1.20550446E-1,6.1146524E-2,1.3575287E-1,1.2717548E-1,-4.585788E-2,5.2677978E-2,-1.7994498E-1,-1.1655352E-2,5.055491E-2,-3.6265153E-2,6.331751E-2,-1.0895272E-1,-1.5898636E-1,-2.786073E-3,-1.3236432E-1,-2.1379219E-1,-1.7723309E-1,-2.1021883E-1,-1.3658333E-1,1.3993775E-2,-6.132872E-2,-1.4265327E-1,1.0641231E-1,-1.4219694E-2,-1.2249112E-1,-2.390348E-1,-1.7713973E-3,1.04515694E-1,-1.2761676E-1,-1.5133602E-2,1.264948E-1,-1.216039E-1,-1.11734055E-1,-7.357636E-4,-5.4176122E-2,9.696347E-2,-6.743752E-2,3.468604E-2,-9.6666716E-2,-1.3820028E-1,-1.4294606E-1,9.216448E-3],"split_indices":[22,3,2,2,0,0,27,17,0,23,0,17,3,11,2,0,0,2,2,0,26,12,0,17,17,2,0,11,28,0,1,17,11,17,0,29,23,13,1,24,26,2,14,0,4,0,0,28,2,2,0,24,24,14,23,0,0,1,0,0,0,0,0,0,0,0,0,0,0,0,0,0,0,0,0,0,0,0,0,0,0,0,0,0,0,0,0,0,0,0,0,0,0,0,0,0,0,0,0,0,0,0,0,0,0,0,0],"split_type":[0,0,0,0,0,0,0,0,0,0,0,0,0,0,0,0,0,0,0,0,0,0,0,0,0,0,0,0,0,0,0,0,0,0,0,0,0,0,0,0,0,0,0,0,0,0,0,0,0,0,0,0,0,0,0,0,0,0,0,0,0,0,0,0,0,0,0,0,0,0,0,0,0,0,0,0,0,0,0,0,0,0,0,0,0,0,0,0,0,0,0,0,0,0,0,0,0,0,0,0,0,0,0,0,0,0,0],"sum_hessian":[1.1396716E5,5.4514375E4,5.9452777E4,5.2526137E4,1.9882397E3,2.3727559E4,3.5725223E4,1.3826373E3,5.1143496E4,1.1158425E2,1.8766555E3,2.0521246E4,3.206312E3,4.403104E3,3.1322117E4,7.7798615E0,1.3748574E3,3.8760027E4,1.238347E4,2.5423965E1,8.6160286E1,5.4740765E2,1.3292478E3,2.049138E4,2.9865011E1,2.2905933E3,9.157187E2,2.240021E3,2.1630833E3,2.0138545E4,1.1183571E4,1.3461611E3,2.8696342E1,3.375039E3,3.538499E4,1.2240279E4,1.431905E2,2.2975138E1,2.4488287E0,2.4769964E1,6.1390316E1,2.3086497E2,3.165427E2,1.956973E1,2.047181E4,2.4779512E1,5.085498E0,8.033877E1,2.2102544E3,7.1741325E1,8.4397736E2,1.5989988E3,6.410221E2,2.0530002E3,1.1008283E2,5.2814585E3,1.4857088E4,7.802019E3,3.381552E3,1.3421989E3,3.9622626E0,2.108907E1,7.6072745E0,1.0361976E2,3.2714192E3,1.5153363E4,2.0231625E4,7.380341E3,4.8599385E3,6.1804813E1,8.138569E1,2.182462E1,1.150518E0,1.2215929E0,1.2272358E0,1.902654E1,5.743424E0,2.534576E1,3.6044556E1,1.7750786E2,5.3357117E1,1.549838E2,1.615589E2,2.046331E4,8.500822E0,1.4875573E1,6.5463196E1,1.9125659E3,2.9768854E2,8.803562E0,6.293776E1,7.9070154E2,8.0829724E2,5.791064E2,6.19157E1,2.0344326E3,1.856778E1,3.4059757E1,7.602307E1,1.6067965E3,3.6746619E3,1.1565929E4,3.2911592E3,4.3432583E3,3.458761E3,8.466673E2,2.5348845E3],"tree_param":{"num_deleted":"0","num_feature":"32","num_nodes":"107","size_leaf_vector":"1"}},{"base_weights":[6.918228E-4,6.621491E-1,-6.067971E-1,7.3894316E-1,-1.3571528E0,-7.414974E-1,1.8885562E-1,5.623158E-1,1.247629E0,-5.3568774E-1,-1.409583E0,-8.1026874E-2,-9.062696E-1,8.330917E-1,-1.4890367E0,1.0462885E0,2.6025927E-1,9.2628324E-1,1.2603664E0,-1.1994857E0,-2.4497525E-1,-1.582708E0,-1.3328542E0,-1.0339451E0,5.5509555E-1,1.5741022E-1,-9.3739676E-1,9.459704E-1,-1.5452615E-2,-1.7516462E0,-1.4663365E-1,-2.3750868E-1,1.2520003E0,1.4974287E0,1.07555114E-1,3.3522943E-1,1.0363778E0,6.8151915E-1,1.266335E0,-1.4320517E0,-3.7380713E-1,-5.7355756E-1,1.7928828E-1,-1.3481996E0,-1.7393467E0,-4.984566E-2,-1.3337182E-1,1.8832892E-1,-1.066223E0,6.862981E-1,-9.3143445E-1,-9.665321E-1,1.5326842E0,1.2978741E0,7.5255084E-1,6.295886E-1,-4.6718022E-1,2.7942176E-3,-1.7636706E0,1.432835E-1,-4.0606327E-2,1.2853464E-1,-1.5121275E-3,1.4471698E-1,1.5373342E-1,-8.989071E-3,1.3139775E-1,4.1734803E-2,-1.0128661E-1,8.683548E-2,1.1997912E-1,1.1867686E-1,-5.01071E-2,1.3089937E-1,1.21795945E-1,-1.6550039E-1,-2.3024326E-2,1.2199706E-2,-1.3040173E-1,1.960533E-2,-1.3389564E-1,-1.0149974E-2,9.227951E-2,-1.5248878E-1,-1.0279818E-1,-1.6631946E-1,-2.0051359E-1,-1.09655775E-1,1.824022E-1,1.094318E-1,4.524465E-2,-9.945409E-2,1.2754342E-1,-1.08855896E-1,-7.727474E-2,1.5820786E-1,-8.8176645E-2,1.3514781E-1,5.87052E-2,6.727327E-2,1.5880242E-1,1.4658049E-1,5.3687263E-2,-6.280544E-2,1.629031E-1,-3.1113604E-2,-1.773986E-1],"categories":[],"categories_nodes":[],"categories_segments":[],"categories_sizes":[],"default_left":[0,0,0,0,0,0,0,0,0,0,0,0,0,0,0,0,0,0,0,0,0,0,0,0,0,0,0,0,0,0,0,0,0,0,0,0,0,0,0,0,0,0,0,0,0,0,0,0,0,0,0,0,0,0,0,0,0,0,0,0,0,0,0,0,0,0,0,0,0,0,0,0,0,0,0,0,0,0,0,0,0,0,0,0,0,0,0,0,0,0,0,0,0,0,0,0,0,0,0,0,0,0,0,0,0,0,0],"id":7,"left_children":[1,3,5,7,9,11,13,15,17,19,21,23,25,27,29,31,33,35,37,39,41,43,45,47,49,-1,51,53,55,57,-1,59,61,63,65,67,69,71,73,75,77,79,81,83,85,-1,-1,-1,87,89,91,93,95,97,99,101,103,-1,105,-1,-1,-1,-1,-1,-1,-1,-1,-1,-1,-1,-1,-1,-1,-1,-1,-1,-1,-1,-1,-1,-1,-1,-1,-1,-1,-1,-1,-1,-1,-1,-1,-1,-1,-1,-1,-1,-1,-1,-1,-1,-1,-1,-1,-1,-1,-1,-1],"loss_changes":[4.4123418E4,8.152799E3,6.1346484E3,4.5494688E3,8.2208984E1,5.327168E3,8.960238E3,5.4952686E3,5.2253906E1,2.2319317E1,2.1935059E1,5.925904E3,3.0262441E3,5.736826E2,1.1141113E1,3.8153174E3,4.3729307E3,3.227835E1,4.25E1,6.2687416E0,1.1638499E1,1.7878174E1,2.4414062E-1,3.705078E2,1.1440461E3,0E0,2.7860508E3,3.5882275E2,2.0547809E2,3.8547363E0,0E0,5.6251733E2,5.261113E2,2.8754883E0,4.908433E3,9.301726E0,1.0549927E1,7.842621E1,2.4039062E1,6.931984E0,4.374585E0,2.787233E1,7.7925935E0,1.1157867E1,3.276062E0,0E0,0E0,0E0,3.414126E2,5.1357227E2,6.754471E1,9.0346484E2,5.523584E1,7.0593994E1,2.2656873E2,2.1732178E1,1.4087704E2,0E0,2.0949707E0,0E0,0E0,0E0,0E0,0E0,0E0,0E0,0E0,0E0,0E0,0E0,0E0,0E0,0E0,0E0,0E0,0E0,0E0,0E0,0E0,0E0,0E0,0E0,0E0,0E0,0E0,0E0,0E0,0E0,0E0,0E0,0E0,0E0,0E0,0E0,0E0,0E0,0E0,0E0,0E0,0E0,0E0,0E0,0E0,0E0,0E0,0E0,0E0],"parents":[2147483647,0,0,1,1,2,2,3,3,4,4,5,5,6,6,7,7,8,8,9,9,10,10,11,11,12,12,13,13,14,14,15,15,16,16,17,17,18,18,19,19,20,20,21,21,22,22,23,23,24,24,26,26,27,27,28,28,29,29,31,31,32,32,33,33,34,34,35,35,36,36,37,37,38,38,39,39,40,40,41,41,42,42,43,43,44,44,48,48,49,49,50,50,51,51,52,52,53,53,54,54,55,55,56,56,58,58],"right_children":[2,4,6,8,10,12,14,16,18,20,22,24,26,28,30,32,34,36,38,40,42,44,46,48,50,-1,52,54,56,58,-1,60,62,64,66,68,70,72,74,76,78,80,82,84,86,-1,-1,-1,88,90,92,94,96,98,100,102,104,-1,106,-1,-1,-1,-1,-1,-1,-1,-1,-1,-1,-1,-1,-1,-1,-1,-1,-1,-1,-1,-1,-1,-1,-1,-1,-1,-1,-1,-1,-1,-1,-1,-1,-1,-1,-1,-1,-1,-1,-1,-1,-1,-1,-1,-1,-1,-1,-1,-1],"split_conditions":[1E0,1E0,9.00662E6,8.695118E6,1.683E5,5E4,1E0,5E4,9.00662E6,-1.007E1,1.0268252E7,2.9519E4,1E0,1.0023502E7,1.0066691E7,2.9852E4,1E0,-1.112E1,-1.377E1,2.756359E7,5.1078004E-1,4.4461975E6,5.605493E6,1E0,1.9E1,1.5741022E-1,1.0009545E0,1.5999895E1,9.972614E6,4.18361E5,-1.4663365E-1,1E0,1.9E1,0E0,1.0007377E0,1.3E1,5.1078004E-1,2.20023E1,1.9E1,1.44192E5,1.5000588E1,-6.7832994E-1,7E0,5.1078004E-1,9.709073E6,-4.984566E-2,-1.3337182E-1,1.8832892E-1,1.0009545E0,1.6E1,2.9866192E0,3.14022E-1,2E0,1.3713416E0,2.9866192E0,1E0,4E0,2.7942176E-3,9.033407E6,1.432835E-1,-4.0606327E-2,1.2853464E-1,-1.5121275E-3,1.4471698E-1,1.5373342E-1,-8.989071E-3,1.3139775E-1,4.1734803E-2,-1.0128661E-1,8.683548E-2,1.1997912E-1,1.1867686E-1,-5.01071E-2,1.3089937E-1,1.21795945E-1,-1.6550039E-1,-2.3024326E-2,1.2199706E-2,-1.3040173E-1,1.960533E-2,-1.3389564E-1,-1.0149974E-2,9.227951E-2,-1.5248878E-1,-1.0279818E-1,-1.6631946E-1,-2.0051359E-1,-1.09655775E-1,1.824022E-1,1.094318E-1,4.524465E-2,-9.945409E-2,1.2754342E-1,-1.08855896E-1,-7.727474E-2,1.5820786E-1,-8.8176645E-2,1.3514781E-1,5.87052E-2,6.727327E-2,1.5880242E-1,1.4658049E-1,5.3687263E-2,-6.280544E-2,1.629031E-1,-3.1113604E-2,-1.773986E-1],"split_indices":[22,3,8,8,0,0,3,0,8,23,0,0,17,14,8,8,4,23,23,11,26,12,12,17,18,0,17,28,8,0,0,17,18,23,4,7,26,18,27,0,18,26,1,26,8,0,0,0,17,28,4,26,17,15,4,4,4,0,10,0,0,0,0,0,0,0,0,0,0,0,0,0,0,0,0,0,0,0,0,0,0,0,0,0,0,0,0,0,0,0,0,0,0,0,0,0,0,0,0,0,0,0,0,0,0,0,0],"split_type":[0,0,0,0,0,0,0,0,0,0,0,0,0,0,0,0,0,0,0,0,0,0,0,0,0,0,0,0,0,0,0,0,0,0,0,0,0,0,0,0,0,0,0,0,0,0,0,0,0,0,0,0,0,0,0,0,0,0,0,0,0,0,0,0,0,0,0,0,0,0,0,0,0,0,0,0,0,0,0,0,0,0,0,0,0,0,0,0,0,0,0,0,0,0,0,0,0,0,0,0,0,0,0,0,0,0,0],"sum_hessian":[1.0980474E5,5.256733E4,5.7237414E4,5.0642043E4,1.9252843E3,4.8950406E4,8.28701E3,3.7591516E4,1.3050528E4,1.1618221E2,1.809102E3,9.773987E3,3.9176418E4,5.98828E3,2.2987297E3,1.4444779E4,2.3146736E4,5.0038104E2,1.2550147E4,3.44332E1,8.1749016E1,5.495388E2,1.2595634E3,3.9124578E3,5.8615293E3,4.8493243E2,3.8691484E4,5.285107E3,7.031729E2,1.7683545E2,2.1218943E3,1.9949062E3,1.2449873E4,2.5421438E3,2.0604592E4,7.920513E1,4.211759E2,1.2926134E2,1.2420886E4,2.629296E1,8.140243E0,4.5871056E1,3.587796E1,2.2391553E2,3.2562326E2,1.9006455E0,1.2576626E3,4.2188335E1,3.8702695E3,5.386638E3,4.7489127E2,3.824103E4,4.5045602E2,1.8725378E3,3.412569E3,2.894546E2,4.1371835E2,1.1779461E0,1.756575E2,1.8216684E2,1.8127394E3,1.2130624E4,3.19249E2,1.1416104E3,1.4005334E3,1.7707473E4,2.8971194E3,7.530818E1,3.896946E0,2.1077219E2,2.1040373E2,9.056488E1,3.8696453E1,6.586614E3,5.8342725E3,2.1860447E1,4.432512E0,5.876764E0,2.263479E0,2.32435E1,2.2627556E1,2.666958E1,9.208379E0,1.4187204E2,8.2043495E1,2.5874643E2,6.687683E1,3.830685E3,3.958444E1,1.9611606E3,3.4254775E3,4.6222314E2,1.26681385E1,2.3462201E4,1.4778829E4,4.4176324E2,8.692761E0,1.7403914E3,1.3214638E2,3.116623E3,2.9594604E2,2.7412096E1,2.6204248E2,3.8488095E2,2.8837389E1,1.4584026E0,1.741991E2],"tree_param":{"num_deleted":"0","num_feature":"32","num_nodes":"107","size_leaf_vector":"1"}},{"base_weights":[1.0327788E-3,6.189754E-1,-5.6515723E-1,6.903892E-1,-1.2949733E0,1.4674159E0,-6.0649437E-1,5.4088265E-1,1.2031184E0,-7.187204E-1,-1.3406394E0,1.7945385E-1,1.4501628E0,-6.486846E-1,1.340556E0,1.0031997E0,2.5839666E-1,8.7969404E-1,1.2172678E0,-2.493044E-1,-9.7750044E-1,-1.3427364E0,9.111247E-2,1.3545741E-1,1.4798824E-1,-7.4446636E-1,3.415123E-2,1.4712479E0,-4.9802893E-1,-1.8445107E-1,1.20537E0,1.4175353E0,1.1811883E-1,3.4735733E-1,1.0002586E0,1.2557775E0,1.1578119E0,-5.7875454E-1,4.9140522E-1,-1.3014094E0,-4.8642153E-1,-1.4608142E0,-1.2896035E0,-1.3112395E-1,-8.973716E-1,7.519036E-1,-1.4214383E0,1.7623354E-1,1.4588891E0,-7.551946E-1,8.759596E-1,1.4127076E-1,-3.4157243E-2,1.2358532E-1,2.8154204E-2,1.3857026E-1,1.4429615E-1,-5.601739E-3,1.4071243E-1,-2.6606089E-3,6.290995E-2,-1.10470474E-1,1.0142908E-1,1.2707578E-1,1.2096947E-1,1.0148026E-1,1.1852111E-1,3.9123308E-2,-8.9215375E-2,7.635905E-2,-1.1696042E-1,-1.3935976E-1,1.6046563E-2,8.1905045E-2,-7.615423E-2,-1.2439404E-1,-1.603109E-1,-2.4109825E-2,-1.2906633E-1,-1.0193428E-1,4.6102542E-2,-9.1101535E-2,1.8516628E-1,1.18303694E-1,5.348725E-2,-1.621934E-1,-1.4060633E-1,1.3546608E-1,1.4891936E-1,-1.0084911E-1,3.413595E-2,1.308484E-1,-9.818682E-2],"categories":[],"categories_nodes":[],"categories_segments":[],"categories_sizes":[],"default_left":[0,0,0,0,0,0,0,0,0,0,0,0,0,0,0,0,0,0,0,0,0,0,0,0,0,0,0,0,0,0,0,0,0,0,0,0,0,0,0,0,0,0,0,0,0,0,0,0,0,0,0,0,0,0,0,0,0,0,0,0,0,0,0,0,0,0,0,0,0,0,0,0,0,0,0,0,0,0,0,0,0,0,0,0,0,0,0,0,0,0,0,0,0],"id":8,"left_children":[1,3,5,7,9,11,13,15,17,19,21,-1,23,25,27,29,31,33,35,37,39,41,-1,-1,-1,43,45,47,49,51,53,55,57,59,61,63,65,67,69,71,73,75,77,79,81,83,85,-1,87,89,91,-1,-1,-1,-1,-1,-1,-1,-1,-1,-1,-1,-1,-1,-1,-1,-1,-1,-1,-1,-1,-1,-1,-1,-1,-1,-1,-1,-1,-1,-1,-1,-1,-1,-1,-1,-1,-1,-1,-1,-1,-1,-1],"loss_changes":[3.7144746E4,6.939328E3,4.655908E3,3.750754E3,4.709619E1,3.6315918E0,4.4614004E3,4.948293E3,4.94834E1,1.630825E1,9.208496E0,0E0,9.9121094E-1,3.4761152E3,2.775393E2,3.4508057E3,3.8244604E3,2.9602783E1,2.2774414E1,1.2428247E1,1.3284035E1,8.718018E0,0E0,0E0,0E0,4.371176E3,6.8327515E3,1.2993164E0,2.7939102E1,5.252998E2,3.4549023E2,5.5664062E-2,4.71005E3,9.257363E0,1.2343231E1,2.8886719E0,1.5146484E1,1.0959481E1,8.06382E0,7.248123E0,1.3686526E1,1.3957275E1,9.934082E-1,4.8931143E3,1.4010449E3,4.0921582E2,4.3779297E0,0E0,1.260498E0,1.855505E1,1.14369E1,0E0,0E0,0E0,0E0,0E0,0E0,0E0,0E0,0E0,0E0,0E0,0E0,0E0,0E0,0E0,0E0,0E0,0E0,0E0,0E0,0E0,0E0,0E0,0E0,0E0,0E0,0E0,0E0,0E0,0E0,0E0,0E0,0E0,0E0,0E0,0E0,0E0,0E0,0E0,0E0,0E0,0E0],"parents":[2147483647,0,0,1,1,2,2,3,3,4,4,5,5,6,6,7,7,8,8,9,9,10,10,12,12,13,13,14,14,15,15,16,16,17,17,18,18,19,19,20,20,21,21,25,25,26,26,27,27,28,28,29,29,30,30,31,31,32,32,33,33,34,34,35,35,36,36,37,37,38,38,39,39,40,40,41,41,42,42,43,43,44,44,45,45,46,46,48,48,49,49,50,50],"right_children":[2,4,6,8,10,12,14,16,18,20,22,-1,24,26,28,30,32,34,36,38,40,42,-1,-1,-1,44,46,48,50,52,54,56,58,60,62,64,66,68,70,72,74,76,78,80,82,84,86,-1,88,90,92,-1,-1,-1,-1,-1,-1,-1,-1,-1,-1,-1,-1,-1,-1,-1,-1,-1,-1,-1,-1,-1,-1,-1,-1,-1,-1,-1,-1,-1,-1,-1,-1,-1,-1,-1,-1,-1,-1,-1,-1,-1,-1],"split_conditions":[1E0,1E0,1E0,8.671539E6,2.26593E5,2.9519E4,1.0001321E0,5E4,9.000434E6,3.857E4,1.0009545E0,1.7945385E-1,5E4,9.000434E6,2E0,2.9519E4,1E0,-1.112E1,9E0,1E0,5.1078004E-1,1.0268252E7,9.111247E-2,1.3545741E-1,1.4798824E-1,5E4,1E0,2.9519E4,8.671539E6,1E0,1.9E1,0E0,1.0001321E0,3.14022E-1,-9.975127E-1,2E1,-1.097E1,2.0014246E0,1.56561E5,9.549132E6,2.19841E5,5.059991E6,5.605493E6,2.9519E4,4E0,1.500283E1,9.978761E6,1.7623354E-1,5E4,1.15757E5,1E0,1.4127076E-1,-3.4157243E-2,1.2358532E-1,2.8154204E-2,1.3857026E-1,1.4429615E-1,-5.601739E-3,1.4071243E-1,-2.6606089E-3,6.290995E-2,-1.10470474E-1,1.0142908E-1,1.2707578E-1,1.2096947E-1,1.0148026E-1,1.1852111E-1,3.9123308E-2,-8.9215375E-2,7.635905E-2,-1.1696042E-1,-1.3935976E-1,1.6046563E-2,8.1905045E-2,-7.615423E-2,-1.2439404E-1,-1.603109E-1,-2.4109825E-2,-1.2906633E-1,-1.0193428E-1,4.6102542E-2,-9.1101535E-2,1.8516628E-1,1.18303694E-1,5.348725E-2,-1.621934E-1,-1.4060633E-1,1.3546608E-1,1.4891936E-1,-1.0084911E-1,3.413595E-2,1.308484E-1,-9.818682E-2],"split_indices":[22,3,30,0,0,0,30,0,0,24,17,0,0,0,30,0,30,23,29,20,26,0,0,0,0,0,3,0,0,30,18,23,30,26,26,28,23,18,12,14,11,0,12,0,4,28,14,0,0,24,3,0,0,0,0,0,0,0,0,0,0,0,0,0,0,0,0,0,0,0,0,0,0,0,0,0,0,0,0,0,0,0,0,0,0,0,0,0,0,0,0,0,0],"split_type":[0,0,0,0,0,0,0,0,0,0,0,0,0,0,0,0,0,0,0,0,0,0,0,0,0,0,0,0,0,0,0,0,0,0,0,0,0,0,0,0,0,0,0,0,0,0,0,0,0,0,0,0,0,0,0,0,0,0,0,0,0,0,0,0,0,0,0,0,0,0,0,0,0,0,0,0,0,0,0,0,0,0,0,0,0,0,0,0,0,0,0,0,0],"sum_hessian":[1.0616439E5,5.076219E4,5.54022E4,4.8936883E4,1.8253085E3,1.1035881E3,5.4298613E4,3.7890465E4,1.1046415E4,1.3525748E2,1.6900509E3,5.0128555E1,1.0534596E3,5.3147633E4,1.150979E3,1.43699795E4,2.3520486E4,4.6565402E2,1.0580761E4,4.8764366E1,8.64931E1,1.6888818E3,1.1691322E0,2.6089813E2,7.9256146E2,4.660959E4,6.538042E3,1.0747804E3,7.619866E1,2.0903416E3,1.2279639E4,2.538159E3,2.0982328E4,8.6704185E1,3.7894986E2,6.4093086E3,4.1714526E3,3.3903526E1,1.486084E1,5.112298E1,3.5370125E1,5.158997E2,1.1729822E3,9.301345E3,3.7308246E4,4.3791587E3,2.1588833E3,3.800666E1,1.0367737E3,6.4564644E1,1.1634025E1,1.8650479E2,1.9038367E3,1.1887067E4,3.925708E2,1.1517306E3,1.3864285E3,1.8485953E4,2.496375E3,3.764397E1,4.906021E1,1.994743E0,3.769551E2,4.8168853E3,1.5924232E3,6.7682434E2,3.4946282E3,8.2184925E0,2.5685036E1,1.3232716E1,1.628125E0,4.813426E1,2.9887195E0,5.812457E0,2.9557667E1,2.0824767E2,3.0765204E2,1.4151101E0,1.171567E3,3.7202625E3,5.5810825E3,3.7124664E4,1.8358438E2,1.4648254E3,2.9143333E3,1.4632153E2,2.0125616E3,2.4383546E2,7.9293823E2,5.251447E1,1.2050171E1,9.676834E0,1.9571899E0],"tree_param":{"num_deleted":"0","num_feature":"32","num_nodes":"93","size_leaf_vector":"1"}},{"base_weights":[1.3709646E-4,5.7834154E-1,-5.304105E-1,6.444815E-1,-1.2333516E0,-6.513778E-1,1.4054693E-1,4.7692293E-1,1.1545552E0,-4.0675893E-1,-1.2845851E0,-7.2984636E-2,-8.023178E-1,6.5660155E-1,-1.3665912E0,5.928673E-1,-7.526718E-1,8.317817E-1,1.174295E0,-2.424786E-1,-1.4619668E-1,-1.2866766E0,8.550541E-2,-9.134215E-1,4.613139E-1,1.4272194E-1,-8.296993E-1,1.1272285E0,4.6895188E-1,-1.5292405E0,-1.3505753E0,-1.1402443E-2,7.4770015E-1,4.6760926E-1,-1.458819E0,9.401376E-1,-1.3456142E0,5.7547796E-1,1.180485E0,-9.012125E-1,7.9926886E-2,-1.3170401E0,-1.1384267E0,1.6125372E-1,-9.411457E-1,5.8507144E-1,-9.1988415E-1,-8.549765E-1,1.3857486E0,1.2038963E0,3.5603505E-1,1.4935708E0,3.6815387E-1,-4.8574167E-3,-1.5409751E0,-9.1682357E-1,-1.3533159E-1,6.724552E-2,-3.29461E-2,1.337384E-1,6.468372E-2,-1.9533986E-1,9.936865E-2,-6.038043E-2,-1.7999284E-1,-1.08762525E-1,9.9247E-2,-1.9140765E-1,1.14304446E-1,1.15620375E-1,-6.369464E-2,1.2355989E-1,1.134513E-1,-1.2736186E-1,-5.004992E-3,-1.3915914E-1,2.142172E-2,-1.4354506E-1,-1.2595293E-1,-6.0953528E-2,-1.226558E-1,-9.678959E-2,1.4887522E-1,7.035387E-2,-2.1754486E-2,1.2302818E-1,-1.0246044E-1,-7.611672E-2,-1.2891206E-1,1.4308064E-1,-7.767516E-2,1.2382703E-1,5.223308E-2,-3.1880464E-2,5.4089006E-2,-8.130483E-2,1.5050672E-1,-5.027562E-2,5.708809E-2,-1.5619448E-1,-9.3437426E-2,5.368502E-2,-1.12975396E-1],"categories":[],"categories_nodes":[],"categories_segments":[],"categories_sizes":[],"default_left":[0,0,0,0,0,0,0,0,0,0,0,0,0,0,0,0,0,0,0,0,0,0,0,0,0,0,0,0,0,0,0,0,0,0,0,0,0,0,0,0,0,0,0,0,0,0,0,0,0,0,0,0,0,0,0,0,0,0,0,0,0,0,0,0,0,0,0,0,0,0,0,0,0,0,0,0,0,0,0,0,0,0,0,0,0,0,0,0,0,0,0,0,0,0,0,0,0,0,0,0,0,0,0],"id":9,"left_children":[1,3,5,7,9,11,13,15,17,19,21,23,25,27,29,31,33,35,37,39,-1,41,-1,43,45,-1,47,49,51,53,55,57,59,61,63,65,67,69,71,73,75,77,79,-1,81,83,85,87,89,91,93,95,97,-1,99,101,-1,-1,-1,-1,-1,-1,-1,-1,-1,-1,-1,-1,-1,-1,-1,-1,-1,-1,-1,-1,-1,-1,-1,-1,-1,-1,-1,-1,-1,-1,-1,-1,-1,-1,-1,-1,-1,-1,-1,-1,-1,-1,-1,-1,-1,-1,-1],"loss_changes":[3.137835E4,5.8657256E3,4.3295566E3,4.035416E3,7.249951E1,3.9455234E3,6.3388335E3,5.0682446E3,7.341406E1,1.7344427E1,8.36377E0,4.200936E3,2.189209E3,5.3562354E2,3.3498535E0,3.0393164E3,2.6405283E3,1.6083652E2,4.0097656E1,1.908937E1,0E0,5.801758E0,0E0,2.5614404E2,9.781748E2,0E0,1.9839766E3,1.01853516E2,4.4790338E2,3.0317383E0,1.019043E0,1.4416086E3,1.5371562E3,1.4331542E3,5.649595E2,6.951117E1,4.8127934E1,8.135658E1,2.6183594E1,9.288998E0,1.2359903E1,7.3166504E0,1.2448456E1,0E0,2.352544E2,4.99312E2,1.07249084E2,1.4247773E3,4.006665E1,3.6207275E1,1.9863462E1,1.152771E1,6.9849146E2,0E0,7.965088E-1,5.2606306E0,0E0,0E0,0E0,0E0,0E0,0E0,0E0,0E0,0E0,0E0,0E0,0E0,0E0,0E0,0E0,0E0,0E0,0E0,0E0,0E0,0E0,0E0,0E0,0E0,0E0,0E0,0E0,0E0,0E0,0E0,0E0,0E0,0E0,0E0,0E0,0E0,0E0,0E0,0E0,0E0,0E0,0E0,0E0,0E0,0E0,0E0,0E0],"parents":[2147483647,0,0,1,1,2,2,3,3,4,4,5,5,6,6,7,7,8,8,9,9,10,10,11,11,12,12,13,13,14,14,15,15,16,16,17,17,18,18,19,19,21,21,23,23,24,24,26,26,27,27,28,28,29,29,30,30,31,31,32,32,33,33,34,34,35,35,36,36,37,37,38,38,39,39,40,40,41,41,42,42,44,44,45,45,46,46,47,47,48,48,49,49,50,50,51,51,52,52,54,54,55,55],"right_children":[2,4,6,8,10,12,14,16,18,20,22,24,26,28,30,32,34,36,38,40,-1,42,-1,44,46,-1,48,50,52,54,56,58,60,62,64,66,68,70,72,74,76,78,80,-1,82,84,86,88,90,92,94,96,98,-1,100,102,-1,-1,-1,-1,-1,-1,-1,-1,-1,-1,-1,-1,-1,-1,-1,-1,-1,-1,-1,-1,-1,-1,-1,-1,-1,-1,-1,-1,-1,-1,-1,-1,-1,-1,-1,-1,-1,-1,-1,-1,-1,-1,-1,-1,-1,-1,-1],"split_conditions":[1E0,1E0,8.695118E6,8.360314E6,1.55632E5,5E4,1E0,8.66025E-1,9.00662E6,7.6807606E-1,1.0009545E0,2.9519E4,1E0,1.6E1,9.978761E6,-1.048E1,5E4,8.66025E-1,-1.377E1,-9.5E0,-1.4619668E-1,7E0,8.550541E-2,1E0,1.9E1,1.4272194E-1,1.0009545E0,1.9996643E1,1.66E2,5E1,9.343117E6,5E4,1E0,2.9852E4,4.015826E0,-9.0315014E-1,9.000434E6,2.20023E1,1.7E1,2.4856E7,-9.0315014E-1,1.0401693E7,1.055294E6,1.6125372E-1,1.0009545E0,8.66025E-1,2.95E2,7.6807606E-1,2E0,1.238169E0,9.000434E6,9.381615E6,9.000434E6,-4.8574167E-3,2.20023E1,7.4E1,-1.3533159E-1,6.724552E-2,-3.29461E-2,1.337384E-1,6.468372E-2,-1.9533986E-1,9.936865E-2,-6.038043E-2,-1.7999284E-1,-1.08762525E-1,9.9247E-2,-1.9140765E-1,1.14304446E-1,1.15620375E-1,-6.369464E-2,1.2355989E-1,1.134513E-1,-1.2736186E-1,-5.004992E-3,-1.3915914E-1,2.142172E-2,-1.4354506E-1,-1.2595293E-1,-6.0953528E-2,-1.226558E-1,-9.678959E-2,1.4887522E-1,7.035387E-2,-2.1754486E-2,1.2302818E-1,-1.0246044E-1,-7.611672E-2,-1.2891206E-1,1.4308064E-1,-7.767516E-2,1.2382703E-1,5.223308E-2,-3.1880464E-2,5.4089006E-2,-8.130483E-2,1.5050672E-1,-5.027562E-2,5.708809E-2,-1.5619448E-1,-9.3437426E-2,5.368502E-2,-1.12975396E-1],"split_indices":[22,3,8,8,0,0,3,25,8,25,17,0,17,27,14,23,0,25,23,23,0,1,0,17,18,0,17,28,24,24,0,0,17,8,18,25,0,18,27,11,25,8,0,0,17,25,24,25,17,15,0,11,0,0,18,24,0,0,0,0,0,0,0,0,0,0,0,0,0,0,0,0,0,0,0,0,0,0,0,0,0,0,0,0,0,0,0,0,0,0,0,0,0,0,0,0,0,0,0,0,0,0,0],"split_type":[0,0,0,0,0,0,0,0,0,0,0,0,0,0,0,0,0,0,0,0,0,0,0,0,0,0,0,0,0,0,0,0,0,0,0,0,0,0,0,0,0,0,0,0,0,0,0,0,0,0,0,0,0,0,0,0,0,0,0,0,0,0,0,0,0,0,0,0,0,0,0,0,0,0,0,0,0,0,0,0,0,0,0,0,0,0,0,0,0,0,0,0,0,0,0,0,0,0,0,0,0,0,0],"sum_hessian":[1.0228591E5,4.8944664E4,5.3341242E4,4.7221383E4,1.723279E3,4.519334E4,8.1479023E3,3.554638E4,1.1675005E4,1.010994E2,1.6221796E3,9.353346E3,3.5839996E4,6.070042E3,2.0778604E3,3.248384E4,3.0625396E3,6.7533997E2,1.0999665E4,8.854417E1,1.2555234E1,1.6209938E3,1.1858658E0,3.6349539E3,5.7183916E3,4.3419934E2,3.5405797E4,1.7289113E3,4.3411304E3,1.777938E2,1.9000667E3,6.625861E3,2.5857979E4,1.1227214E3,1.939818E3,6.438668E2,3.1473166E1,1.1350326E2,1.0886162E4,2.8505957E1,6.003821E1,1.3388883E3,2.821054E2,3.8842472E1,3.5961113E3,5.248678E3,4.697135E2,3.5006996E4,3.9879868E2,1.5720642E3,1.5684709E2,3.8757602E2,3.9535544E3,1.438374E0,1.7635541E2,1.4036033E1,1.8860306E3,2.1030273E3,4.5228335E3,3.7750896E3,2.2082889E4,1.9993004E2,9.227914E2,5.539851E2,1.3858329E3,1.5701091E1,6.281657E2,2.5808777E1,5.6643887E0,7.677569E1,3.672757E1,4.939058E3,5.9471035E3,1.9484604E1,9.021354E0,4.237895E0,5.5800316E1,4.298666E2,9.0902167E2,4.1424694E1,2.4068073E2,3.5575488E3,3.856267E1,4.5737153E3,6.749631E2,2.1315E1,4.483985E2,2.878905E4,6.2179473E3,3.909904E2,7.8082833E0,1.495808E3,7.625618E1,3.3570076E1,1.2327701E2,1.5763216E0,3.859997E2,7.4624133E2,3.2073132E3,1.6894038E2,7.4150314E0,1.5989268E0,1.2437106E1],"tree_param":{"num_deleted":"0","num_feature":"32","num_nodes":"103","size_leaf_vector":"1"}},{"base_weights":[2.0678672E-3,5.41188E-1,-4.943841E-1,6.0256046E-1,-1.185005E0,-1.0436531E0,-1.6171834E-1,-1.2452905E0,6.571689E-1,-5.492564E-1,-1.2426702E0,-1.2305379E0,1.18485145E-1,-3.198046E-2,-9.190787E-1,1.1628293E-1,-1.2626678E0,5.1113915E-1,1.1434164E0,-3.4848493E-1,-1.5537684E0,-9.291371E-1,-1.2568516E0,1.20997034E-1,-1.233013E0,5.936859E-1,-1.249952E0,3.5628065E-2,-1.3064374E0,-1.0814013E0,-6.2644914E-2,-1.2729192E0,4.262345E-1,-1.0298463E0,6.733358E-1,1.1563135E0,8.362774E-1,-1.9302888E-1,-1.2857654E0,-1.6696184E0,-2.9333858E-2,-7.407734E-2,-1.0775952E0,-3.0172002E-1,-1.2596838E0,-1.2362047E0,-2.2524014E-2,7.5672525E-1,-4.1014323E-1,-1.6007894E0,-1.2085487E0,-6.899934E-2,7.8402656E-1,-9.236307E-1,-1.3459733E0,-6.8875057E-1,-1.40988E0,6.102607E-1,-1.2192823E0,-1.2829049E-1,-3.8082E-2,1.1495016E-1,-1.0406027E-1,1.4441353E-1,-1.1065968E-1,7.646399E-2,-5.0534047E-2,1.16578184E-1,8.8820376E-2,-5.845675E-3,1.2923542E-1,-1.4673808E-1,-6.6162185E-3,-1.39526E-1,1.6800817E-2,-1.7989507E-1,-4.778808E-2,2.5184536E-2,-1.08839564E-1,-1.1596363E-1,2.5723845E-2,9.8569535E-2,-1.19413994E-1,-1.3610719E-1,-1.21863976E-1,-1.2954654E-1,-1.22904375E-1,1.2848698E-1,-1.2676132E-1,-1.297919E-1,8.542574E-2,1.4840247E-1,-1.0666926E-1,-1.6280805E-1,-7.667589E-2,1.2208568E-2,-1.2111185E-1,3.846928E-2,-2.4545457E-2,9.781055E-2,-5.630503E-2,-2.5602926E-2,-1.0553955E-1,-9.129792E-2,-1.3546757E-1,2.0540847E-2,-1.0942272E-1,-1.6698937E-1,-1.3584651E-1,8.176399E-2,-8.06427E-2,3.0859305E-2,-1.3516326E-1],"categories":[],"categories_nodes":[],"categories_segments":[],"categories_sizes":[],"default_left":[0,0,0,0,0,0,0,0,0,0,0,0,0,0,0,0,0,0,0,0,0,0,0,0,0,0,0,0,0,0,0,0,0,0,0,0,0,0,0,0,0,0,0,0,0,0,0,0,0,0,0,0,0,0,0,0,0,0,0,0,0,0,0,0,0,0,0,0,0,0,0,0,0,0,0,0,0,0,0,0,0,0,0,0,0,0,0,0,0,0,0,0,0,0,0,0,0,0,0,0,0,0,0,0,0,0,0,0,0,0,0,0,0],"id":10,"left_children":[1,3,5,7,9,11,13,15,17,19,21,23,25,27,29,-1,31,33,35,37,39,41,43,-1,45,47,49,51,53,55,57,59,61,63,65,67,69,71,73,75,-1,77,79,81,83,85,87,89,91,93,95,97,99,101,103,105,107,109,111,-1,-1,-1,-1,-1,-1,-1,-1,-1,-1,-1,-1,-1,-1,-1,-1,-1,-1,-1,-1,-1,-1,-1,-1,-1,-1,-1,-1,-1,-1,-1,-1,-1,-1,-1,-1,-1,-1,-1,-1,-1,-1,-1,-1,-1,-1,-1,-1,-1,-1,-1,-1,-1,-1],"loss_changes":[2.6388754E4,5.0081533E3,9.378787E3,4.606707E3,5.882251E1,4.20509E3,3.1411694E3,5.6309082E1,3.1474785E3,2.7042828E1,5.4455566E0,1.0224609E2,1.7454912E3,2.3518445E3,6.4989795E2,0E0,2.307837E1,8.523015E3,3.9589844E1,1.6548817E1,2.794857E0,8.577362E0,3.46167E0,0E0,6.434961E1,3.2635736E2,8.115601E0,2.0296964E3,1.9567383E1,5.0595947E2,5.813697E2,1.1038818E1,1.0322319E1,6.1823315E2,3.3204658E3,2.3902344E1,1.6992252E2,1.6079369E1,2.8168678E0,2.2826653E0,0E0,3.9644709E0,6.6538696E0,7.511912E0,4.232422E0,5.4589844E0,7.46151E1,3.4461877E2,3.4855533E2,3.4387207E-1,2.277954E0,1.8207389E3,8.317517E2,1.1332886E1,3.4509277E0,6.500297E2,2.6328613E1,1.394154E2,5.596872E1,0E0,0E0,0E0,0E0,0E0,0E0,0E0,0E0,0E0,0E0,0E0,0E0,0E0,0E0,0E0,0E0,0E0,0E0,0E0,0E0,0E0,0E0,0E0,0E0,0E0,0E0,0E0,0E0,0E0,0E0,0E0,0E0,0E0,0E0,0E0,0E0,0E0,0E0,0E0,0E0,0E0,0E0,0E0,0E0,0E0,0E0,0E0,0E0,0E0,0E0,0E0,0E0,0E0,0E0],"parents":[2147483647,0,0,1,1,2,2,3,3,4,4,5,5,6,6,7,7,8,8,9,9,10,10,11,11,12,12,13,13,14,14,16,16,17,17,18,18,19,19,20,20,21,21,22,22,24,24,25,25,26,26,27,27,28,28,29,29,30,30,31,31,32,32,33,33,34,34,35,35,36,36,37,37,38,38,39,39,41,41,42,42,43,43,44,44,45,45,46,46,47,47,48,48,49,49,50,50,51,51,52,52,53,53,54,54,55,55,56,56,57,57,58,58],"right_children":[2,4,6,8,10,12,14,16,18,20,22,24,26,28,30,-1,32,34,36,38,40,42,44,-1,46,48,50,52,54,56,58,60,62,64,66,68,70,72,74,76,-1,78,80,82,84,86,88,90,92,94,96,98,100,102,104,106,108,110,112,-1,-1,-1,-1,-1,-1,-1,-1,-1,-1,-1,-1,-1,-1,-1,-1,-1,-1,-1,-1,-1,-1,-1,-1,-1,-1,-1,-1,-1,-1,-1,-1,-1,-1,-1,-1,-1,-1,-1,-1,-1,-1,-1,-1,-1,-1,-1,-1,-1,-1,-1,-1,-1,-1],"split_conditions":[1E0,1E0,3E0,1E0,2.26593E5,9.000434E6,8.66025E-1,9.994302E-1,9.00662E6,4E0,4.110371E6,9.9910384E-1,1E0,1E0,9.00662E6,1.1628293E-1,1.0001321E0,3E0,4E0,7.6807606E-1,8E0,1E0,3.05667E5,1.20997034E-1,1.0001321E0,2E0,9.983809E6,8.695118E6,2.28353E5,5.9960785E0,1.0023502E7,9.673568E6,1.0213543E0,1E0,8.66025E-1,1.0023502E7,2.0079021E0,-9.0315014E-1,1.9899998E5,1.0008845E1,-2.9333858E-2,4E0,8.001989E0,5.9819407E0,1.0350547E7,5E4,1.0254556E0,1E0,1E0,2.20023E1,1.0015992E7,5.1212E4,4E0,2E0,3.823328E6,5E4,5E4,4E0,9.856176E6,-1.2829049E-1,-3.8082E-2,1.1495016E-1,-1.0406027E-1,1.4441353E-1,-1.1065968E-1,7.646399E-2,-5.0534047E-2,1.16578184E-1,8.8820376E-2,-5.845675E-3,1.2923542E-1,-1.4673808E-1,-6.6162185E-3,-1.39526E-1,1.6800817E-2,-1.7989507E-1,-4.778808E-2,2.5184536E-2,-1.08839564E-1,-1.1596363E-1,2.5723845E-2,9.8569535E-2,-1.19413994E-1,-1.3610719E-1,-1.21863976E-1,-1.2954654E-1,-1.22904375E-1,1.2848698E-1,-1.2676132E-1,-1.297919E-1,8.542574E-2,1.4840247E-1,-1.0666926E-1,-1.6280805E-1,-7.667589E-2,1.2208568E-2,-1.2111185E-1,3.846928E-2,-2.4545457E-2,9.781055E-2,-5.630503E-2,-2.5602926E-2,-1.0553955E-1,-9.129792E-2,-1.3546757E-1,2.0540847E-2,-1.0942272E-1,-1.6698937E-1,-1.3584651E-1,8.176399E-2,-8.06427E-2,3.0859305E-2,-1.3516326E-1],"split_indices":[22,3,2,2,0,0,25,30,8,2,11,30,3,3,8,0,30,2,2,25,1,1,10,0,30,2,0,8,12,18,14,8,30,30,25,14,5,25,0,29,0,2,7,7,9,12,30,2,30,18,9,0,2,1,11,0,0,2,8,0,0,0,0,0,0,0,0,0,0,0,0,0,0,0,0,0,0,0,0,0,0,0,0,0,0,0,0,0,0,0,0,0,0,0,0,0,0,0,0,0,0,0,0,0,0,0,0,0,0,0,0,0,0],"split_type":[0,0,0,0,0,0,0,0,0,0,0,0,0,0,0,0,0,0,0,0,0,0,0,0,0,0,0,0,0,0,0,0,0,0,0,0,0,0,0,0,0,0,0,0,0,0,0,0,0,0,0,0,0,0,0,0,0,0,0,0,0,0,0,0,0,0,0,0,0,0,0,0,0,0,0,0,0,0,0,0,0,0,0,0,0,0,0,0,0,0,0,0,0,0,0,0,0,0,0,0,0,0,0,0,0,0,0,0,0,0,0,0,0],"sum_hessian":[9.859327E4,4.7265445E4,5.1327824E4,4.5643312E4,1.6221355E3,1.9360047E4,3.1967777E4,1.3095255E3,4.4333785E4,1.3577441E2,1.4863611E3,1.6677984E4,2.6820635E3,2.7293389E4,4.6743887E3,8.909737E0,1.3006158E3,3.40961E4,1.0237686E4,1.142802E2,2.1494217E1,6.7198784E1,1.4191622E3,1.6403677E1,1.666158E4,1.9911774E3,6.9088617E2,2.5919367E4,1.3740215E3,3.9293784E3,7.4501013E2,1.2930137E3,7.6021442E0,3.2465144E3,3.0849586E4,9.822463E3,4.152229E2,9.9056725E1,1.5223468E1,1.93876E1,2.1066163E0,1.0162985E1,5.70358E1,4.51377E0,1.4146486E3,1.6617742E4,4.3836838E1,1.7131742E3,2.780031E2,6.8951546E1,6.2193463E2,2.274104E4,3.1783286E3,1.3090376E2,1.2431177E3,1.7912657E3,2.1381128E3,4.712942E2,2.7371597E2,1.2782673E3,1.4746326E1,5.2364826E0,2.3656616E0,9.715012E1,3.1493643E3,2.8632008E4,2.2175786E3,9.484181E3,3.3828232E2,1.4048682E2,2.747361E2,8.011945E0,9.1044785E1,1.4194616E1,1.0288515E0,1.7029922E1,2.3576772E0,8.260435E0,1.9025494E0,5.385692E1,3.1788821E0,1.8051378E0,2.7086322E0,3.983865E2,1.016262E3,1.7721802E3,1.48455625E4,2.1367819E1,2.246902E1,7.707975E1,1.6360945E3,7.123302E1,2.0677008E2,6.584492E1,3.1066282E0,1.1091763E0,6.2082544E2,6.367664E3,1.6373374E4,2.7783188E3,4.0000986E2,2.2062849E1,1.0884091E2,2.6578808E1,1.216539E3,5.590155E2,1.2322502E3,3.4779248E2,1.7903203E3,4.1148288E2,5.9811287E1,2.1714005E1,2.5200197E2],"tree_param":{"num_deleted":"0","num_feature":"32","num_nodes":"113","size_leaf_vector":"1"}},{"base_weights":[5.5330227E-5,5.080472E-1,-4.668413E-1,3.7772045E-1,1.1596525E0,-1.0143695E0,-1.5255256E-1,1.2696685E0,2.3473343E-1,-1.0488982E0,1.1848919E0,-1.2003831E0,1.1426092E-1,-3.5327155E-2,-8.653254E-1,1.2909734E0,1.2080516E-1,-4.3119723E-1,4.114199E-1,1.0967724E0,-1.9925487E0,1.2660223E0,1.0261935E0,1.16540864E-1,-1.2024866E0,5.19444E-1,-1.1226668E0,6.3944376E-1,-1.5089333E-1,-1.0190293E0,-6.4495884E-2,1.2575565E-1,1.3181171E-1,-1.1587759E0,6.972401E-1,6.1187255E-1,-5.3330548E-2,1.268376E-1,4.1378218E-1,5.69363E-1,-2.1496289E0,1.2868488E0,1.2068188E-1,1.2393582E0,3.263287E-1,-1.2053981E0,-1.2632877E-1,1.0310966E0,2.4258764E-1,3.543362E-1,-1.1713494E0,9.864962E-1,-1.8213888E-1,6.085365E-2,-5.557827E-1,-6.2604386E-1,-1.3596009E0,4.8591697E-1,-1.2525035E0,-1.0970044E-1,-1.308627E-1,1.0035954E-1,-1.18661694E-1,9.416178E-2,4.5112055E-2,1.7462693E-2,-5.7681E-2,9.469155E-2,-8.418274E-2,9.370139E-2,-1.8513491E-2,-2.2964673E-1,-9.948002E-2,1.554463E-1,1.2793086E-1,1.2402624E-1,-2.0199372E-2,1.0633202E-1,-3.9607664E-3,-1.206244E-1,2.2094168E-2,1.21165924E-1,-1.2370341E-1,1.0903817E-1,-1.4517932E-2,1.1928088E-2,1.4083499E-1,8.061331E-2,-5.8045175E-2,-1.1829766E-1,8.9345016E-2,5.530999E-2,1.3894975E-1,-7.112655E-2,7.1459174E-2,4.2759657E-2,-2.9647736E-2,-1.2276107E-1,-2.471747E-2,2.1751909E-2,-1.0327455E-1,-1.591981E-1,-1.3119027E-1,6.970789E-2,-8.2664035E-2,7.2267845E-2,-1.3020228E-1],"categories":[],"categories_nodes":[],"categories_segments":[],"categories_sizes":[],"default_left":[0,0,0,0,0,0,0,0,0,0,0,0,0,0,0,0,0,0,0,0,0,0,0,0,0,0,0,0,0,0,0,0,0,0,0,0,0,0,0,0,0,0,0,0,0,0,0,0,0,0,0,0,0,0,0,0,0,0,0,0,0,0,0,0,0,0,0,0,0,0,0,0,0,0,0,0,0,0,0,0,0,0,0,0,0,0,0,0,0,0,0,0,0,0,0,0,0,0,0,0,0,0,0,0,0,0,0],"id":11,"left_children":[1,3,5,7,9,11,13,15,17,19,21,23,25,27,29,31,-1,33,35,37,39,41,43,-1,45,47,49,51,53,55,57,-1,-1,59,61,63,65,-1,67,69,71,73,-1,75,77,79,81,83,85,87,89,91,93,95,97,99,101,103,105,-1,-1,-1,-1,-1,-1,-1,-1,-1,-1,-1,-1,-1,-1,-1,-1,-1,-1,-1,-1,-1,-1,-1,-1,-1,-1,-1,-1,-1,-1,-1,-1,-1,-1,-1,-1,-1,-1,-1,-1,-1,-1,-1,-1,-1,-1,-1,-1],"loss_changes":[2.2463982E4,3.851624E3,8.492558E3,4.820775E3,4.226494E2,3.7786152E3,2.6199111E3,5.296875E0,3.8335645E3,1.7621124E2,9.494141E1,7.8296875E1,1.2773406E3,2.099987E3,5.450442E2,1.8486328E0,0E0,5.610149E3,2.3988066E3,2.6277695E0,2.5389679E1,4.540039E0,3.7762085E2,0E0,4.8216797E1,2.7166852E2,4.5635498E1,1.1229615E3,1.971196E3,4.9641064E2,4.6760162E2,0E0,0E0,3.7018066E1,1.5472534E3,9.531621E2,9.2612054E2,0E0,5.406302E0,1.3551046E0,7.345581E0,5.35791E0,0E0,2.78125E0,1.5995578E2,1.884375E1,6.5060715E1,4.7138245E1,1.7907016E2,9.26727E0,1.567926E1,4.8277686E2,5.5577313E2,1.9786195E3,1.6366172E3,5.926514E2,1.9963867E1,1.3604575E2,2.3084747E1,0E0,0E0,0E0,0E0,0E0,0E0,0E0,0E0,0E0,0E0,0E0,0E0,0E0,0E0,0E0,0E0,0E0,0E0,0E0,0E0,0E0,0E0,0E0,0E0,0E0,0E0,0E0,0E0,0E0,0E0,0E0,0E0,0E0,0E0,0E0,0E0,0E0,0E0,0E0,0E0,0E0,0E0,0E0,0E0,0E0,0E0,0E0,0E0],"parents":[2147483647,0,0,1,1,2,2,3,3,4,4,5,5,6,6,7,7,8,8,9,9,10,10,11,11,12,12,13,13,14,14,15,15,17,17,18,18,19,19,20,20,21,21,22,22,24,24,25,25,26,26,27,27,28,28,29,29,30,30,33,33,34,34,35,35,36,36,38,38,39,39,40,40,41,41,43,43,44,44,45,45,46,46,47,47,48,48,49,49,50,50,51,51,52,52,53,53,54,54,55,55,56,56,57,57,58,58],"right_children":[2,4,6,8,10,12,14,16,18,20,22,24,26,28,30,32,-1,34,36,38,40,42,44,-1,46,48,50,52,54,56,58,-1,-1,60,62,64,66,-1,68,70,72,74,-1,76,78,80,82,84,86,88,90,92,94,96,98,100,102,104,106,-1,-1,-1,-1,-1,-1,-1,-1,-1,-1,-1,-1,-1,-1,-1,-1,-1,-1,-1,-1,-1,-1,-1,-1,-1,-1,-1,-1,-1,-1,-1,-1,-1,-1,-1,-1,-1,-1,-1,-1,-1,-1,-1,-1,-1,-1,-1,-1],"split_conditions":[1E0,1.0007377E0,3E0,1E0,-1.377E1,9.000434E6,8.66025E-1,8.879599E6,3E0,2.20023E1,2E0,9.9992996E-1,9.983809E6,1.4E1,9.00662E6,5E4,1.2080516E-1,9.000434E6,6E0,1.027E3,1.4001156E1,9.00662E6,2.95E2,1.16540864E-1,1.0001321E0,1.5999895E1,1.0015992E7,6E0,4E0,5.9960785E0,9.983809E6,1.2575565E-1,1.3181171E-1,2E0,1.0066691E7,5E4,4E0,1.268376E-1,9.996671E0,8.000992E0,9.106046E6,3E0,1.2068188E-1,1.0072447E7,1.8E1,4E0,1.0228862E0,2.1996119E1,1.0001321E0,8.001989E0,1.0001321E0,9.039649E6,1.8724724E7,1.683E5,1.9899998E5,5E4,5E4,4E0,1.0015992E7,-1.0970044E-1,-1.308627E-1,1.0035954E-1,-1.18661694E-1,9.416178E-2,4.5112055E-2,1.7462693E-2,-5.7681E-2,9.469155E-2,-8.418274E-2,9.370139E-2,-1.8513491E-2,-2.2964673E-1,-9.948002E-2,1.554463E-1,1.2793086E-1,1.2402624E-1,-2.0199372E-2,1.0633202E-1,-3.9607664E-3,-1.206244E-1,2.2094168E-2,1.21165924E-1,-1.2370341E-1,1.0903817E-1,-1.4517932E-2,1.1928088E-2,1.4083499E-1,8.061331E-2,-5.8045175E-2,-1.1829766E-1,8.9345016E-2,5.530999E-2,1.3894975E-1,-7.112655E-2,7.1459174E-2,4.2759657E-2,-2.9647736E-2,-1.2276107E-1,-2.471747E-2,2.1751909E-2,-1.0327455E-1,-1.591981E-1,-1.3119027E-1,6.970789E-2,-8.2664035E-2,7.2267845E-2,-1.3020228E-1],"split_indices":[22,4,2,4,23,0,25,8,2,18,4,30,0,28,8,0,0,0,7,24,27,8,24,0,30,28,9,7,2,18,0,0,0,2,8,0,2,0,29,27,0,2,0,12,27,4,30,27,30,7,30,11,11,0,0,0,0,2,9,0,0,0,0,0,0,0,0,0,0,0,0,0,0,0,0,0,0,0,0,0,0,0,0,0,0,0,0,0,0,0,0,0,0,0,0,0,0,0,0,0,0,0,0,0,0,0,0],"split_type":[0,0,0,0,0,0,0,0,0,0,0,0,0,0,0,0,0,0,0,0,0,0,0,0,0,0,0,0,0,0,0,0,0,0,0,0,0,0,0,0,0,0,0,0,0,0,0,0,0,0,0,0,0,0,0,0,0,0,0,0,0,0,0,0,0,0,0,0,0,0,0,0,0,0,0,0,0,0,0,0,0,0,0,0,0,0,0,0,0,0,0,0,0,0,0,0,0,0,0,0,0,0,0,0,0,0,0],"sum_hessian":[9.4710914E4,4.5359203E4,4.9351715E4,3.7800375E4,7.558829E3,1.7996848E4,3.1354865E4,5.221425E3,3.257895E4,8.494876E1,7.4738804E3,1.5450356E4,2.5464917E3,2.692734E4,4.427526E3,3.8650696E3,1.3563552E3,6.831103E3,2.5747848E4,2.589851E1,5.905025E1,4.9409673E3,2.532913E3,1.32343855E1,1.5437122E4,1.9185939E3,6.278978E2,3.9367576E3,2.2990582E4,3.7143545E3,7.1317163E2,1.7535632E3,2.1115066E3,4.153219E3,2.6778838E3,1.7988756E4,7.759091E3,2.0013071E1,5.8854394E0,3.2597878E0,5.5790462E1,3.6398223E3,1.3011449E3,1.9409637E3,5.919494E2,1.5395352E4,4.177061E1,6.726882E2,1.2459058E3,1.9835033E1,6.080628E2,2.7675078E3,1.1692498E3,1.50963955E4,7.8941865E3,1.725797E3,1.9885574E3,4.877735E2,2.2539813E2,2.9468076E3,1.2064117E3,2.3037175E3,3.741662E2,5.893912E3,1.2094844E4,5.405741E3,2.3533499E3,4.3038654E0,1.5815742E0,2.029131E0,1.2306569E0,4.8619793E1,7.1706715E0,9.412031E1,3.545702E3,1.9398865E3,1.0773096E0,1.9576842E2,3.9618097E2,1.538638E4,8.971029E0,1.8905548E1,2.2865065E1,6.404806E2,3.220757E1,1.1277247E3,1.18181076E2,1.3464886E1,6.370148E0,6.050826E2,2.9802666E0,1.3346108E3,1.4328971E3,7.354786E2,4.3377112E2,7.449985E3,7.6464106E3,2.4838845E3,5.4103022E3,5.6154004E2,1.164257E3,3.3314383E2,1.6554136E3,4.205802E2,6.71933E1,5.1802015E0,2.2021794E2],"tree_param":{"num_deleted":"0","num_feature":"32","num_nodes":"107","size_leaf_vector":"1"}},{"base_weights":[-6.2271784E-4,4.7855294E-1,-4.380021E-1,3.5270748E-1,1.1261955E0,-9.8242605E-1,-1.4199296E-1,1.2372037E0,2.1823835E-1,1.1538594E0,-5.72106E-1,-1.1717933E0,1.1648718E-1,-3.250731E-2,-8.3123267E-1,1.2555872E0,1.1841065E-1,-4.181811E-1,3.8016492E-1,1.2348256E0,9.972705E-1,8.5896367E-1,-1.1691029E0,1.136262E-1,-1.1742878E0,4.928567E-1,-1.087903E0,6.5922177E-1,-1.2837547E-1,-9.732632E-1,-8.947548E-2,1.2273613E-1,1.278681E-1,-1.1047027E0,6.622095E-1,5.517519E-1,-1.0424054E-1,1.2527148E0,1.1832757E-1,6.1568475E-1,1.2227255E0,1.3642743E-1,9.650029E-1,-1.6690274E0,1.021043E0,-1.1766628E0,7.0329374E-1,9.847512E-1,2.3949723E-1,3.12159E-1,-1.1601157E0,8.941168E-1,-3.203516E-1,6.0212716E-2,-4.9675053E-1,-5.8814627E-1,-1.3168141E0,4.9550584E-1,-1.1120294E0,1.7969662E-1,-1.108667E-1,9.622894E-2,-1.1732211E-1,9.326651E-2,4.030932E-2,3.3624365E-3,-9.788927E-2,1.4766854E-1,1.2461995E-1,9.223374E-2,3.431281E-3,1.3321228E-1,1.1977925E-1,9.792771E-2,-4.3776076E-2,1.0207877E-1,-1.2704067E-2,-1.8440425E-1,4.2768292E-2,1.1638077E-1,1.4828957E-2,-1.177521E-1,1.0037547E-2,1.14463724E-1,-9.6091E-2,1.0646093E-1,1.4877327E-3,-1.3237931E-1,3.2665398E-2,4.9607135E-2,-1.3909218E-1,-1.1704475E-1,8.935947E-2,-1.5003626E-1,9.3451105E-2,-6.812439E-2,8.089434E-2,-8.890064E-2,1.83474E-2,-8.35934E-2,1.94814E-2,1.9734334E-2,-9.847755E-2,-1.525398E-1,-1.2736546E-1,6.7180775E-2,-5.974265E-2,3.4007087E-2,-1.2565427E-1],"categories":[],"categories_nodes":[],"categories_segments":[],"categories_sizes":[],"default_left":[0,0,0,0,0,0,0,0,0,0,0,0,0,0,0,0,0,0,0,0,0,0,0,0,0,0,0,0,0,0,0,0,0,0,0,0,0,0,0,0,0,0,0,0,0,0,0,0,0,0,0,0,0,0,0,0,0,0,0,0,0,0,0,0,0,0,0,0,0,0,0,0,0,0,0,0,0,0,0,0,0,0,0,0,0,0,0,0,0,0,0,0,0,0,0,0,0,0,0,0,0,0,0,0,0,0,0,0,0],"id":12,"left_children":[1,3,5,7,9,11,13,15,17,19,21,23,25,27,29,31,-1,33,35,37,39,41,43,-1,45,47,49,51,53,55,57,-1,-1,59,61,63,65,67,-1,69,71,73,75,77,79,81,83,85,87,89,91,93,95,97,99,101,103,105,107,-1,-1,-1,-1,-1,-1,-1,-1,-1,-1,-1,-1,-1,-1,-1,-1,-1,-1,-1,-1,-1,-1,-1,-1,-1,-1,-1,-1,-1,-1,-1,-1,-1,-1,-1,-1,-1,-1,-1,-1,-1,-1,-1,-1,-1,-1,-1,-1,-1,-1],"loss_changes":[1.9116164E4,3.547086E3,7.684549E3,4.334491E3,3.3334277E2,3.4951562E3,2.3310781E3,3.2080078E0,3.2604873E3,8.711133E1,9.854047E1,8.381836E1,1.1200197E3,1.7678905E3,4.4601392E2,7.4853516E-1,0E0,4.76059E3,2.0963628E3,2.75E0,2.0400854E2,2.4873486E0,9.037209E1,0E0,6.464453E1,2.3435187E2,5.9842712E1,7.469535E2,1.6266129E3,4.6941748E2,4.0826346E2,0E0,0E0,4.7134277E1,1.3747982E3,1.0542329E3,7.956263E2,3.105957E0,0E0,1.5792114E2,2.4824219E0,3.1094615E0,1.9355545E0,2.5122208E1,1.7799034E0,1.578125E1,1.4838646E1,4.952289E1,1.6989201E2,9.97508E0,1.2921265E1,2.5458862E2,2.566443E2,1.812143E3,1.8598196E3,5.227663E2,1.4958496E1,8.407605E1,5.2540955E1,0E0,0E0,0E0,0E0,0E0,0E0,0E0,0E0,0E0,0E0,0E0,0E0,0E0,0E0,0E0,0E0,0E0,0E0,0E0,0E0,0E0,0E0,0E0,0E0,0E0,0E0,0E0,0E0,0E0,0E0,0E0,0E0,0E0,0E0,0E0,0E0,0E0,0E0,0E0,0E0,0E0,0E0,0E0,0E0,0E0,0E0,0E0,0E0,0E0,0E0],"parents":[2147483647,0,0,1,1,2,2,3,3,4,4,5,5,6,6,7,7,8,8,9,9,10,10,11,11,12,12,13,13,14,14,15,15,17,17,18,18,19,19,20,20,21,21,22,22,24,24,25,25,26,26,27,27,28,28,29,29,30,30,33,33,34,34,35,35,36,36,37,37,39,39,40,40,41,41,42,42,43,43,44,44,45,45,46,46,47,47,48,48,49,49,50,50,51,51,52,52,53,53,54,54,55,55,56,56,57,57,58,58],"right_children":[2,4,6,8,10,12,14,16,18,20,22,24,26,28,30,32,-1,34,36,38,40,42,44,-1,46,48,50,52,54,56,58,-1,-1,60,62,64,66,68,-1,70,72,74,76,78,80,82,84,86,88,90,92,94,96,98,100,102,104,106,108,-1,-1,-1,-1,-1,-1,-1,-1,-1,-1,-1,-1,-1,-1,-1,-1,-1,-1,-1,-1,-1,-1,-1,-1,-1,-1,-1,-1,-1,-1,-1,-1,-1,-1,-1,-1,-1,-1,-1,-1,-1,-1,-1,-1,-1,-1,-1,-1,-1,-1],"split_conditions":[1E0,1.0007377E0,3E0,1E0,2.3E1,9.000434E6,8.66025E-1,8.879599E6,3E0,2E0,3.9989245E0,1E0,9.983809E6,1.3E1,9.00662E6,5E4,1.1841065E-1,9.000434E6,7E0,9.00662E6,2.9866192E0,3E0,4.0003095E0,1.136262E-1,1.0009545E0,1.5999895E1,1.0023502E7,7E0,4E0,5.9960785E0,1.0023502E7,1.2273613E-1,1.278681E-1,9.9592006E-1,1.0066691E7,1.4E1,8.66025E-1,3E0,1.1832757E-1,7E0,5.121394E6,1.6002213E1,1.3174521E7,2.9866192E0,7.1683395E6,4E0,2E0,9E0,1E0,2E0,1.0001321E0,2.9519E4,8.844994E6,-9.0315014E-1,8E0,5E4,5E4,4E0,9.933637E6,1.7969662E-1,-1.108667E-1,9.622894E-2,-1.1732211E-1,9.326651E-2,4.030932E-2,3.3624365E-3,-9.788927E-2,1.4766854E-1,1.2461995E-1,9.223374E-2,3.431281E-3,1.3321228E-1,1.1977925E-1,9.792771E-2,-4.3776076E-2,1.0207877E-1,-1.2704067E-2,-1.8440425E-1,4.2768292E-2,1.1638077E-1,1.4828957E-2,-1.177521E-1,1.0037547E-2,1.14463724E-1,-9.6091E-2,1.0646093E-1,1.4877327E-3,-1.3237931E-1,3.2665398E-2,4.9607135E-2,-1.3909218E-1,-1.1704475E-1,8.935947E-2,-1.5003626E-1,9.3451105E-2,-6.812439E-2,8.089434E-2,-8.890064E-2,1.83474E-2,-8.35934E-2,1.94814E-2,1.9734334E-2,-9.847755E-2,-1.525398E-1,-1.2736546E-1,6.7180775E-2,-5.974265E-2,3.4007087E-2,-1.2565427E-1],"split_indices":[22,4,2,4,18,0,25,8,2,4,19,17,0,28,8,0,0,0,7,8,4,2,19,0,17,28,14,7,2,18,14,0,0,6,8,28,25,2,0,7,9,28,14,4,13,4,17,7,2,2,30,0,14,25,1,0,0,2,8,0,0,0,0,0,0,0,0,0,0,0,0,0,0,0,0,0,0,0,0,0,0,0,0,0,0,0,0,0,0,0,0,0,0,0,0,0,0,0,0,0,0,0,0,0,0,0,0,0,0],"split_type":[0,0,0,0,0,0,0,0,0,0,0,0,0,0,0,0,0,0,0,0,0,0,0,0,0,0,0,0,0,0,0,0,0,0,0,0,0,0,0,0,0,0,0,0,0,0,0,0,0,0,0,0,0,0,0,0,0,0,0,0,0,0,0,0,0,0,0,0,0,0,0,0,0,0,0,0,0,0,0,0,0,0,0,0,0,0,0,0,0,0,0,0,0,0,0,0,0,0,0,0,0,0,0,0,0,0,0,0,0],"sum_hessian":[9.120909E4,4.3524867E4,4.7684227E4,3.6444727E4,7.080143E3,1.6794057E4,3.089017E4,4.808395E3,3.163633E4,6.966978E3,1.13165054E2,1.4325403E4,2.4686533E3,2.665679E4,4.2333804E3,3.55494E3,1.2534548E3,6.416399E3,2.5219932E4,4.5878735E3,2.3791045E3,3.3182945E1,7.998211E1,1.4975184E1,1.4310428E4,1.8813317E3,5.873216E2,3.244011E3,2.3412777E4,3.5527864E3,6.80594E2,1.624081E3,1.9308589E3,3.9233372E3,2.4930615E3,1.8623088E4,6.596844E3,3.3886255E3,1.1992478E3,8.8498535E2,1.4941191E3,4.5393095E0,2.8643635E1,6.53119E1,1.4670215E1,1.4292723E4,1.7705273E1,6.386035E2,1.2427281E3,2.8644203E1,5.5867737E2,2.6166445E3,6.2736646E2,1.5485747E4,7.9270312E3,1.6763396E3,1.8764468E3,4.3325403E2,2.4733998E2,4.735746E0,3.9186016E3,2.1431477E3,3.499138E2,5.2262993E3,1.3396788E4,5.699445E3,8.973994E2,8.940978E1,3.2992158E3,5.789983E2,3.0598706E2,2.6759164E2,1.2265276E3,1.5534722E0,2.9858372E0,2.7313625E1,1.3300104E0,6.0391453E1,4.9204445E0,1.2321222E1,2.3489928E0,1.4283202E4,9.520667E0,1.4240833E1,3.4644394E0,5.899317E2,4.8671818E1,6.4876686E1,1.1778514E3,2.6492096E1,2.1521082E0,5.5630884E2,2.3685706E0,4.281012E1,2.5738345E3,4.7573203E2,1.5163441E2,1.7790789E3,1.3706668E4,5.31838E3,2.6086516E3,5.6262067E2,1.1137189E3,3.1581473E2,1.5606321E3,3.7340503E2,5.9849E1,2.2264854E1,2.2507512E2],"tree_param":{"num_deleted":"0","num_feature":"32","num_nodes":"109","size_leaf_vector":"1"}},{"base_weights":[-1.1185051E-3,4.4858378E-1,-4.1046005E-1,5.064459E-1,-1.1365654E0,1.3455288E0,-4.47209E-1,3.515442E-1,9.9033225E-1,-4.2449906E-1,-1.2061799E0,1.2385597E-1,1.3644211E-1,-4.8542875E-1,1.2349325E0,8.139869E-1,9.769582E-2,4.6064663E-1,1.0236968E0,-1.3506144E0,-2.9703668E-1,-1.209088E0,4.0430903E-2,1.0070372E-1,-5.6533134E-1,1.350037E0,-3.2377395E-1,-3.529621E-1,1.0441974E0,1.2436839E-1,-1.3299964E-2,1.1900188E0,9.0251364E-2,8.093813E-1,1.0584581E0,-1.4921044E0,2.1742344E-2,-5.941387E-1,-3.1278E-2,-1.251427E0,-1.1234194E0,-4.0624452E-1,7.540814E-1,1.036997E0,-5.955795E-1,1.2317007E-1,1.3671485E-1,-5.968172E-1,4.6327478E-1,-4.9570102E-2,1.2782681E-1,1.0831799E-1,-2.1017173E-2,-1.4687329E-2,1.2284392E-1,1.2206246E-1,-1.1037335E-2,-7.9704635E-2,2.9850716E-2,8.72369E-2,-1.4903167E-2,1.12393275E-1,1.0012277E-1,-1.5549134E-1,-5.018155E-2,-8.064839E-3,-1.4710914E-1,6.365987E-2,-1.6286088E-2,-1.371529E-1,-1.19027436E-1,-5.8614906E-2,-1.1696652E-1,7.213296E-2,-6.512269E-2,1.1073078E-1,-2.7983958E-2,3.5393443E-2,1.6457371E-1,-5.56052E-2,-1.2340619E-1,-7.739171E-2,3.5856064E-2,6.574279E-3,1.0702484E-1],"categories":[],"categories_nodes":[],"categories_segments":[],"categories_sizes":[],"default_left":[0,0,0,0,0,0,0,0,0,0,0,0,0,0,0,0,0,0,0,0,0,0,0,0,0,0,0,0,0,0,0,0,0,0,0,0,0,0,0,0,0,0,0,0,0,0,0,0,0,0,0,0,0,0,0,0,0,0,0,0,0,0,0,0,0,0,0,0,0,0,0,0,0,0,0,0,0,0,0,0,0,0,0,0,0],"id":13,"left_children":[1,3,5,7,9,11,13,15,17,19,21,-1,-1,23,25,27,29,31,33,35,37,39,-1,41,43,45,47,49,51,-1,53,55,57,59,61,63,-1,65,67,69,71,73,75,77,79,-1,-1,81,83,-1,-1,-1,-1,-1,-1,-1,-1,-1,-1,-1,-1,-1,-1,-1,-1,-1,-1,-1,-1,-1,-1,-1,-1,-1,-1,-1,-1,-1,-1,-1,-1,-1,-1,-1,-1],"loss_changes":[1.6162412E4,3.837913E3,2.966604E3,3.0251875E3,7.253967E1,2.1459961E-1,2.8950586E3,3.5895012E3,1.7250293E2,1.5273682E1,6.7735596E0,0E0,0E0,2.061749E3,1.7993689E2,2.9115405E3,2.5112751E3,1.5706999E2,6.77334E1,3.826004E0,9.298754E0,3.4533691E0,0E0,1.7498651E3,1.8782861E3,2.03125E-1,1.5235001E1,4.1655316E2,4.4281934E2,0E0,2.9857632E3,7.930084E0,7.173798E1,7.795416E1,2.8545898E1,1.2805176E-1,0E0,2.4945942E1,5.670371E0,4.8884277E0,1.0567444E1,8.2225745E2,8.4323816E2,2.980293E2,9.589385E2,0E0,0E0,9.095369E0,4.3914695E0,0E0,0E0,0E0,0E0,0E0,0E0,0E0,0E0,0E0,0E0,0E0,0E0,0E0,0E0,0E0,0E0,0E0,0E0,0E0,0E0,0E0,0E0,0E0,0E0,0E0,0E0,0E0,0E0,0E0,0E0,0E0,0E0,0E0,0E0,0E0,0E0],"parents":[2147483647,0,0,1,1,2,2,3,3,4,4,5,5,6,6,7,7,8,8,9,9,10,10,13,13,14,14,15,15,16,16,17,17,18,18,19,19,20,20,21,21,23,23,24,24,25,25,26,26,27,27,28,28,30,30,31,31,32,32,33,33,34,34,35,35,37,37,38,38,39,39,40,40,41,41,42,42,43,43,44,44,47,47,48,48],"right_children":[2,4,6,8,10,12,14,16,18,20,22,-1,-1,24,26,28,30,32,34,36,38,40,-1,42,44,46,48,50,52,-1,54,56,58,60,62,64,-1,66,68,70,72,74,76,78,80,-1,-1,82,84,-1,-1,-1,-1,-1,-1,-1,-1,-1,-1,-1,-1,-1,-1,-1,-1,-1,-1,-1,-1,-1,-1,-1,-1,-1,-1,-1,-1,-1,-1,-1,-1,-1,-1,-1,-1],"split_conditions":[1E0,1E0,1E0,8.33764E6,2.19866E5,1.4E1,1.0001321E0,5E4,1.126285E6,2.3718E4,2.9866192E0,1.2385597E-1,1.3644211E-1,1.2000217E1,2E0,2.9519E4,1E0,1.7E1,-1.112E1,1.08E1,3.14022E-1,5.1078004E-1,4.0430903E-2,9.039649E6,1.66E2,1.2991452E1,1.09671E5,1.0001321E0,1.9E1,1.2436839E-1,1.0001321E0,1.281754E7,-1.161E1,2.3E1,1.8E1,2.8400892E7,2.1742344E-2,-6.7832994E-1,1.817E3,1.0268252E7,9.45169E5,5E4,5.9819407E0,2.9866192E0,1E0,1.2317007E-1,1.3671485E-1,8.671539E6,1.6000814E1,-4.9570102E-2,1.2782681E-1,1.0831799E-1,-2.1017173E-2,-1.4687329E-2,1.2284392E-1,1.2206246E-1,-1.1037335E-2,-7.9704635E-2,2.9850716E-2,8.72369E-2,-1.4903167E-2,1.12393275E-1,1.0012277E-1,-1.5549134E-1,-5.018155E-2,-8.064839E-3,-1.4710914E-1,6.365987E-2,-1.6286088E-2,-1.371529E-1,-1.19027436E-1,-5.8614906E-2,-1.1696652E-1,7.213296E-2,-6.512269E-2,1.1073078E-1,-2.7983958E-2,3.5393443E-2,1.6457371E-1,-5.56052E-2,-1.2340619E-1,-7.739171E-2,3.5856064E-2,6.574279E-3,1.0702484E-1],"split_indices":[22,3,30,9,0,27,30,0,12,12,4,0,0,27,30,0,30,27,23,23,26,26,0,11,24,28,24,30,18,0,30,14,23,18,27,11,0,26,24,0,13,14,7,4,3,0,0,0,18,0,0,0,0,0,0,0,0,0,0,0,0,0,0,0,0,0,0,0,0,0,0,0,0,0,0,0,0,0,0,0,0,0,0,0,0],"split_type":[0,0,0,0,0,0,0,0,0,0,0,0,0,0,0,0,0,0,0,0,0,0,0,0,0,0,0,0,0,0,0,0,0,0,0,0,0,0,0,0,0,0,0,0,0,0,0,0,0,0,0,0,0,0,0,0,0,0,0,0,0,0,0,0,0,0,0,0,0,0,0,0,0,0,0,0,0,0,0,0,0,0,0,0,0],"sum_hessian":[8.779814E4,4.18365E4,4.596164E4,4.0363797E4,1.4727039E3,9.414276E2,4.5020215E4,3.0577164E4,9.786634E3,1.3178732E2,1.3409165E3,1.5130177E2,7.9012585E2,4.4020734E4,9.9947864E2,1.0835544E4,1.974162E4,5.8080225E2,9.205832E3,1.4782748E1,1.1700458E2,1.3387484E3,2.1681092E0,5.2810273E3,3.8739707E4,9.308713E2,6.8607376E1,1.7852887E3,9.050255E3,1.7423484E3,1.7999271E4,1.9486554E2,3.859367E2,1.2881576E3,7.917674E3,1.3603664E1,1.179084E0,5.4661137E1,6.234344E1,8.868438E2,4.5190463E2,2.973951E3,2.3070762E3,7.171488E2,3.802256E4,1.268186E2,8.040527E2,5.1115925E1,1.7491455E1,1.642279E3,1.4300961E2,8.777606E3,2.7264874E2,1.6251939E4,1.7473319E3,1.9044461E2,4.4209194E0,7.282598E1,3.1311072E2,1.2088037E3,7.93539E1,3.6841533E3,4.2335205E3,1.2256159E1,1.3475058E0,3.5163494E1,1.9497644E1,9.629397E0,5.2714046E1,2.9197888E2,5.9486487E2,3.689883E1,4.1500583E2,5.30462E2,2.443489E3,1.7195441E3,5.8753204E2,3.3868945E2,3.7845935E2,3.580763E4,2.214929E3,4.3282513E1,7.8334117E0,1.123893E1,6.252525E0],"tree_param":{"num_deleted":"0","num_feature":"32","num_nodes":"85","size_leaf_vector":"1"}},{"base_weights":[-1.253177E-3,4.229104E-1,-3.8352E-1,3.0750495E-1,1.0628526E0,1.3017361E-1,-4.1686064E-1,1.1884394E0,1.8504438E-1,-9.896309E-1,1.0911251E0,-4.5196742E-1,1.1950574E0,1.2023248E-1,1.1461675E-1,7.58012E-1,5.724699E-2,9.8993313E-1,-1.6692554E0,1.1864059E0,9.1804963E-1,-5.440997E-1,5.3951886E-2,1.3081147E-1,-2.4837002E-1,3.155347E-1,1.1487036E0,-3.794521E-1,2.2947924E-1,1.1986754E-1,1.1208989E-1,8.185828E-2,-1.7961458E0,1.2000983E-1,1.1463799E-1,1.163482E0,2.0276897E-1,-8.033587E-2,-6.7268145E-1,3.8806927E-1,-1.2002054E0,-5.1854944E-1,5.48311E-1,8.34453E-2,-6.2031834E-3,1.1589219E-1,-8.204222E-2,1.5839567E-2,-5.2044876E-2,3.2723337E-2,-5.1715296E-2,-1.24992885E-1,7.37409E-2,-1.8285324E-1,-1.345257E-2,1.1645875E-1,-2.4533734E-2,9.50078E-2,-1.049235E-2,-8.29591E-2,3.8109474E-2,-5.8794435E-2,-1.12668194E-1,8.97117E-2,2.1873167E-2,-7.0278905E-2,-1.2214478E-1,-7.008756E-2,4.554332E-2,1.8126724E-2,1.1264181E-1],"categories":[],"categories_nodes":[],"categories_segments":[],"categories_sizes":[],"default_left":[0,0,0,0,0,0,0,0,0,0,0,0,0,0,0,0,0,0,0,0,0,0,0,0,0,0,0,0,0,0,0,0,0,0,0,0,0,0,0,0,0,0,0,0,0,0,0,0,0,0,0,0,0,0,0,0,0,0,0,0,0,0,0,0,0,0,0,0,0,0,0],"id":14,"left_children":[1,3,5,7,9,-1,11,13,15,17,19,21,23,-1,-1,25,27,29,31,33,35,37,39,-1,41,43,45,47,49,-1,51,-1,53,-1,-1,55,57,59,61,63,65,67,69,-1,-1,-1,-1,-1,-1,-1,-1,-1,-1,-1,-1,-1,-1,-1,-1,-1,-1,-1,-1,-1,-1,-1,-1,-1,-1,-1,-1],"loss_changes":[1.3807761E4,2.9808672E3,2.517233E3,3.6893406E3,3.5894238E2,0E0,2.4860928E3,1.0717773E0,2.1987053E3,1.1509182E2,9.923584E1,2.0037285E3,1.531521E2,0E0,0E0,9.462925E2,1.8467904E3,3.929533E0,2.1402924E1,7.7246094E-1,3.7974E2,2.1684443E3,2.7758508E3,0E0,1.5107136E1,5.0342865E2,5.945923E1,5.2675195E2,1.2853716E3,0E0,5.489925E0,0E0,3.0038757E0,0E0,0E0,2.7956543E0,1.2752427E2,2.7298328E3,1.0946367E3,4.5069653E2,1.3866211E1,9.542576E0,3.5994883E0,0E0,0E0,0E0,0E0,0E0,0E0,0E0,0E0,0E0,0E0,0E0,0E0,0E0,0E0,0E0,0E0,0E0,0E0,0E0,0E0,0E0,0E0,0E0,0E0,0E0,0E0,0E0,0E0],"parents":[2147483647,0,0,1,1,2,2,3,3,4,4,6,6,7,7,8,8,9,9,10,10,11,11,12,12,15,15,16,16,17,17,18,18,19,19,20,20,21,21,22,22,24,24,25,25,26,26,27,27,28,28,30,30,32,32,35,35,36,36,37,37,38,38,39,39,40,40,41,41,42,42],"right_children":[2,4,6,8,10,-1,12,14,16,18,20,22,24,-1,-1,26,28,30,32,34,36,38,40,-1,42,44,46,48,50,-1,52,-1,54,-1,-1,56,58,60,62,64,66,68,70,-1,-1,-1,-1,-1,-1,-1,-1,-1,-1,-1,-1,-1,-1,-1,-1,-1,-1,-1,-1,-1,-1,-1,-1,-1,-1,-1,-1],"split_conditions":[1E0,1.0007377E0,1E0,1E0,-1.377E1,1.3017361E-1,1.0001321E0,9.00662E6,1.3E1,2.20023E1,2E0,8.360314E6,2E0,1.2023248E-1,1.1461675E-1,9.039649E6,-1.007E1,1.027E3,1.4001156E1,9.00662E6,2.95E2,5E4,1.0268252E7,1.3081147E-1,1.09671E5,5E4,1.0023502E7,5E4,8.66025E-1,1.1986754E-1,1.817E3,8.185828E-2,3.1753356E7,1.2000983E-1,1.1463799E-1,9.964689E6,1.8E1,2.9519E4,8.66025E-1,1.5000568E1,1.0646654E7,8.671539E6,1.6000814E1,8.34453E-2,-6.2031834E-3,1.1589219E-1,-8.204222E-2,1.5839567E-2,-5.2044876E-2,3.2723337E-2,-5.1715296E-2,-1.24992885E-1,7.37409E-2,-1.8285324E-1,-1.345257E-2,1.1645875E-1,-2.4533734E-2,9.50078E-2,-1.049235E-2,-8.29591E-2,3.8109474E-2,-5.8794435E-2,-1.12668194E-1,8.97117E-2,2.1873167E-2,-7.0278905E-2,-1.2214478E-1,-7.008756E-2,4.554332E-2,1.8126724E-2,1.1264181E-1],"split_indices":[22,4,30,4,23,0,30,8,27,18,4,8,30,0,0,11,23,24,27,8,24,0,0,0,24,0,14,0,25,0,24,0,10,0,0,12,27,0,25,27,14,0,18,0,0,0,0,0,0,0,0,0,0,0,0,0,0,0,0,0,0,0,0,0,0,0,0,0,0,0,0],"split_type":[0,0,0,0,0,0,0,0,0,0,0,0,0,0,0,0,0,0,0,0,0,0,0,0,0,0,0,0,0,0,0,0,0,0,0,0,0,0,0,0,0,0,0,0,0,0,0,0,0,0,0,0,0,0,0,0,0,0,0,0,0,0,0,0,0,0,0,0,0,0,0],"sum_hessian":[8.515558E4,4.036568E4,4.47899E4,3.419968E4,6.1659976E3,8.681825E2,4.3921715E4,4.17288E3,3.00268E4,8.331896E1,6.0826787E3,4.2986215E4,9.354989E2,3.1204421E3,1.0524376E3,5.47504E3,2.4551762E4,2.1177626E1,6.2141335E1,3.9192266E3,2.1634521E3,3.636395E4,6.622265E3,8.6763464E2,6.786425E1,2.568217E3,2.906823E3,6.943965E3,1.7607797E4,1.681396E1,4.3636675E0,2.7511249E0,5.939021E1,2.8986572E3,1.0205694E3,1.6102909E3,5.531612E2,7.893954E3,2.8469996E4,5.229718E3,1.3925474E3,5.0938522E1,1.692573E1,1.0811293E3,1.4870878E3,2.892226E3,1.4597042E1,1.4422423E3,5.5017227E3,1.5569849E4,2.0379482E3,1.0587404E0,3.3049269E0,5.815624E1,1.2339728E0,1.6092013E3,1.0895164E0,1.6072124E2,3.9243997E2,3.0083315E3,4.885623E3,2.3993934E4,4.476063E3,1.3043622E3,3.9253555E3,5.8429745E1,1.3341177E3,4.314275E1,7.79577E0,1.1156165E1,5.7695646E0],"tree_param":{"num_deleted":"0","num_feature":"32","num_nodes":"71","size_leaf_vector":"1"}},{"base_weights":[4.7586448E-4,-6.4909846E-1,2.3598103E-1,-1.0863419E0,4.956171E-1,5.1281583E-1,-6.80768E-2,-1.0998089E0,1.267323E0,7.648439E-1,-8.748327E-1,5.892378E-1,-2.6184666E-1,3.078809E-2,-7.3641455E-1,1.2547229E-1,-1.1115513E0,1.3735667E-1,-9.5880054E-2,-1.1335874E0,8.1520325E-1,1.7889434E-1,-1.0734551E0,1.450131E-1,7.1272E-1,2.5264364E-1,-1.0662514E0,5.605346E-1,-6.0452458E-2,1.1137489E-3,-8.83587E-1,-1.069074E0,-1.1648196E0,9.928092E-2,-1.178992E0,1.0052947E0,4.3677962E-1,8.689163E-1,-1.7785645E-1,1.1344738E-1,-1.0965418E0,2.562604E-1,-1.1021559E0,6.2782955E-1,1.1285985E0,9.6810544E-1,-3.3837914E-1,-1.8939382E0,5.348874E-1,8.1144595E-1,-3.4152675E-1,1.0925032E-1,-4.06657E-1,5.4477066E-1,-7.874835E-1,-9.908528E-1,-2.983188E-1,-1.0991756E-1,-9.172739E-2,1.05235875E-1,-1.1661353E-1,-1.247867E-1,2.5721058E-2,-1.5731737E-1,1.0105013E-1,6.1803788E-2,-5.966432E-2,-8.472126E-2,9.289604E-2,1.6093835E-2,-1.207931E-1,-1.1191028E-1,1.14322625E-1,8.5704885E-2,9.163027E-3,-1.7327599E-1,-9.185643E-3,1.17210045E-1,5.333462E-2,1.1670231E-1,1.0454458E-1,-1.8905222E-1,1.18675284E-1,-1.8475614E-1,-3.547389E-3,-2.3362072E-1,-1.8116531E-1,9.074051E-2,-1.0840402E-1,4.590337E-2,1.2175613E-1,-7.6045655E-2,7.2805524E-2,-8.0149494E-2,2.2446759E-2,-1.1278274E-1,-1.2354999E-2,7.9255685E-2,-1.6122138E-2,-1.3033386E-1,7.482311E-2,-6.97575E-2,-1.245582E-1,9.8697385E-3,-1.1944812E-1],"categories":[],"categories_nodes":[],"categories_segments":[],"categories_sizes":[],"default_left":[0,0,0,0,0,0,0,0,0,0,0,0,0,0,0,0,0,0,0,0,0,0,0,0,0,0,0,0,0,0,0,0,0,0,0,0,0,0,0,0,0,0,0,0,0,0,0,0,0,0,0,0,0,0,0,0,0,0,0,0,0,0,0,0,0,0,0,0,0,0,0,0,0,0,0,0,0,0,0,0,0,0,0,0,0,0,0,0,0,0,0,0,0,0,0,0,0,0,0,0,0,0,0,0,0],"id":15,"left_children":[1,3,5,7,9,11,13,15,17,19,21,23,25,27,29,-1,31,-1,-1,33,35,37,39,41,43,45,47,49,51,53,55,57,59,-1,61,63,65,67,69,-1,71,73,75,77,79,81,83,85,87,89,91,93,95,97,99,101,103,-1,-1,-1,-1,-1,-1,-1,-1,-1,-1,-1,-1,-1,-1,-1,-1,-1,-1,-1,-1,-1,-1,-1,-1,-1,-1,-1,-1,-1,-1,-1,-1,-1,-1,-1,-1,-1,-1,-1,-1,-1,-1,-1,-1,-1,-1,-1,-1],"loss_changes":[1.2590557E4,1.0961653E4,5.0844277E3,5.0369336E2,2.2342031E3,1.8719365E3,1.9021449E3,4.3704492E2,2.2749786E1,4.8469165E2,2.0832043E2,1.5785088E3,1.1755126E3,1.2121908E3,4.0266455E2,0E0,3.423242E1,0E0,0E0,1.3835648E1,3.54198E2,3.9190018E1,4.3901978E1,8.68944E2,7.94292E2,7.3304004E2,1.469307E3,8.3429675E2,1.2570248E3,2.6543137E2,1.9385327E2,3.8907227E1,2.1487305E1,0E0,1.3070923E1,4.5634033E1,3.09473E2,6.3733673E0,3.6963474E1,0E0,4.315497E1,5.685392E2,3.2662335E2,9.611958E2,1.0973145E1,4.9234753E2,4.340573E2,2.2355713E1,2.2915335E2,4.1209082E2,3.6018488E2,1.5068086E3,1.4367572E3,6.423628E1,2.0112221E2,1.9434937E2,1.710524E2,0E0,0E0,0E0,0E0,0E0,0E0,0E0,0E0,0E0,0E0,0E0,0E0,0E0,0E0,0E0,0E0,0E0,0E0,0E0,0E0,0E0,0E0,0E0,0E0,0E0,0E0,0E0,0E0,0E0,0E0,0E0,0E0,0E0,0E0,0E0,0E0,0E0,0E0,0E0,0E0,0E0,0E0,0E0,0E0,0E0,0E0,0E0,0E0],"parents":[2147483647,0,0,1,1,2,2,3,3,4,4,5,5,6,6,7,7,8,8,9,9,10,10,11,11,12,12,13,13,14,14,16,16,19,19,20,20,21,21,22,22,23,23,24,24,25,25,26,26,27,27,28,28,29,29,30,30,31,31,32,32,34,34,35,35,36,36,37,37,38,38,40,40,41,41,42,42,43,43,44,44,45,45,46,46,47,47,48,48,49,49,50,50,51,51,52,52,53,53,54,54,55,55,56,56],"right_children":[2,4,6,8,10,12,14,16,18,20,22,24,26,28,30,-1,32,-1,-1,34,36,38,40,42,44,46,48,50,52,54,56,58,60,-1,62,64,66,68,70,-1,72,74,76,78,80,82,84,86,88,90,92,94,96,98,100,102,104,-1,-1,-1,-1,-1,-1,-1,-1,-1,-1,-1,-1,-1,-1,-1,-1,-1,-1,-1,-1,-1,-1,-1,-1,-1,-1,-1,-1,-1,-1,-1,-1,-1,-1,-1,-1,-1,-1,-1,-1,-1,-1,-1,-1,-1,-1,-1,-1],"split_conditions":[3E0,8.879599E6,1E0,1.0009545E0,1.0023502E7,8.66025E-1,8.66025E-1,1E0,2E0,1E0,9.972614E6,-1.027E1,6E0,1.4E1,1.4001156E1,1.2547229E-1,2E0,1.3735667E-1,-9.5880054E-2,1E0,1E0,1E0,9.9921083E-1,2.3E1,1.0007377E0,5E4,9.00662E6,6E0,4E0,5.009344E0,9.00662E6,-1.6E-1,9.9682397E-1,9.928092E-2,2.9866192E0,8.936026E6,2E0,9.00662E6,2E0,1.1344738E-1,1.0009545E0,1.5E1,-1.377E1,1E0,2E0,2.9852E4,1.9899998E5,5E4,1.0023502E7,9.121324E6,1.8024868E7,-9.0315014E-1,1.9899998E5,5.9819407E0,8.879599E6,5.9960785E0,1.0072447E7,-1.0991756E-1,-9.172739E-2,1.05235875E-1,-1.1661353E-1,-1.247867E-1,2.5721058E-2,-1.5731737E-1,1.0105013E-1,6.1803788E-2,-5.966432E-2,-8.472126E-2,9.289604E-2,1.6093835E-2,-1.207931E-1,-1.1191028E-1,1.14322625E-1,8.5704885E-2,9.163027E-3,-1.7327599E-1,-9.185643E-3,1.17210045E-1,5.333462E-2,1.1670231E-1,1.0454458E-1,-1.8905222E-1,1.18675284E-1,-1.8475614E-1,-3.547389E-3,-2.3362072E-1,-1.8116531E-1,9.074051E-2,-1.0840402E-1,4.590337E-2,1.2175613E-1,-7.6045655E-2,7.2805524E-2,-8.0149494E-2,2.2446759E-2,-1.1278274E-1,-1.2354999E-2,7.9255685E-2,-1.6122138E-2,-1.3033386E-1,7.482311E-2,-6.97575E-2,-1.245582E-1,9.8697385E-3,-1.1944812E-1],"split_indices":[2,8,22,17,14,25,25,17,17,2,8,23,18,27,27,0,2,0,0,4,22,22,17,18,4,12,8,7,2,18,8,23,4,0,4,10,2,8,2,0,17,27,23,4,4,8,8,8,14,11,11,25,8,7,8,18,12,0,0,0,0,0,0,0,0,0,0,0,0,0,0,0,0,0,0,0,0,0,0,0,0,0,0,0,0,0,0,0,0,0,0,0,0,0,0,0,0,0,0,0,0,0,0,0,0],"split_type":[0,0,0,0,0,0,0,0,0,0,0,0,0,0,0,0,0,0,0,0,0,0,0,0,0,0,0,0,0,0,0,0,0,0,0,0,0,0,0,0,0,0,0,0,0,0,0,0,0,0,0,0,0,0,0,0,0,0,0,0,0,0,0,0,0,0,0,0,0,0,0,0,0,0,0,0,0,0,0,0,0,0,0,0,0,0,0,0,0,0,0,0,0,0,0,0,0,0,0,0,0,0,0,0,0],"sum_hessian":[8.2301E4,2.1898482E4,6.0402516E4,1.5845917E4,6.0525645E3,3.1616256E4,2.8786262E4,1.5756296E4,8.96205E1,5.059133E3,9.934318E2,2.8777533E4,2.8387224E3,2.5077576E4,3.708685E3,7.7663155E1,1.5678633E4,8.590365E1,3.7168477E0,1.3017892E2,4.928954E3,1.5757385E2,8.35858E2,6.259886E3,2.2517648E4,1.7317781E3,1.1069443E3,3.683849E3,2.1393727E4,6.171154E2,3.0915696E3,8.734582E3,6.944051E3,2.2853546E0,1.2789356E2,3.2797822E3,1.6491716E3,5.321349E1,1.0436037E2,8.151384E0,8.277066E2,5.7479634E3,5.119229E2,1.8702537E4,3.8151104E3,7.8312695E2,9.486512E2,7.296031E2,3.7734122E2,2.8822437E3,8.016054E2,1.4356925E4,7.0368022E3,3.654703E2,2.516451E2,2.6121345E3,4.7943524E2,7.2839546E3,1.4506279E3,3.6444833E0,6.9404062E3,1.2216606E2,5.7275E0,6.0024776E0,3.2737798E3,1.4034194E3,2.4575226E2,1.3557167E0,5.1857773E1,7.916613E1,2.5194235E1,8.199477E2,7.7589006E0,1.2353966E3,4.5125664E3,3.147492E2,1.9717372E2,2.7647595E3,1.5937777E4,2.6004277E3,1.2146827E3,5.5099648E1,7.280273E2,1.577224E2,7.909288E2,1.10153824E2,6.194493E2,3.0711343E2,7.022777E1,1.5442925E3,1.3379513E3,5.7620764E2,2.2539778E2,1.6116372E3,1.2745287E4,1.9828422E3,5.0539604E3,2.7043243E2,9.503786E1,1.8848369E2,6.31614E1,1.2159318E3,1.3962026E3,3.3286145E2,1.4657379E2],"tree_param":{"num_deleted":"0","num_feature":"32","num_nodes":"105","size_leaf_vector":"1"}},{"base_weights":[2.5363206E-3,-6.2998676E-1,2.2092041E-1,-1.0599705E0,5.376961E-1,2.7592582E-1,-1.1330895E0,-1.0740896E0,1.2050995E0,8.077421E-1,-1.1836364E0,5.2929664E-1,-9.745159E-4,-6.561539E-1,-1.1914669E0,1.2136865E-1,-1.0863914E0,1.3087562E-1,-9.468271E-2,-1.0268766E0,8.509756E-1,-1.6075984E0,-1.1117992E0,5.984542E-1,-2.0017064E-1,1.2353091E-1,-5.012772E-1,-4.8651618E-1,-1.3048677E0,-1.192891E0,7.084411E-2,-1.0880433E0,6.030312E-1,1.1117232E-1,-1.0912366E0,1.0332994E0,5.054452E-1,-9.742836E-2,-1.6364704E-1,5.2059735E-3,-1.1140189E-1,5.127696E-1,1.0718342E0,2.695275E-1,-9.7559685E-1,3.634977E-1,-7.254575E-2,4.7911476E-2,-8.434611E-1,6.1890036E-1,-6.0081357E-1,-1.4087498E0,-8.5362947E-1,-9.259859E-1,-1.2038007E0,-1.0443448E-1,-1.1440678E-1,1.432344E-1,-1.1216339E-1,-1.2807861E-1,-7.039533E-2,1.03850655E-1,-3.0613769E-2,7.019852E-2,-5.022585E-2,1.1546204E-1,4.2235367E-2,1.0961175E-1,-3.7741058E-2,9.242304E-2,-3.0056072E-2,-1.7601869E-1,7.969233E-2,1.0726731E-1,2.8737083E-2,5.7049345E-2,-1.7582623E-2,-4.881319E-3,8.512939E-2,-9.966483E-2,3.8147822E-2,